<?xml version="1.0"?>
<opencv_storage>
<cascade>
  <stageType>BOOST</stageType>
  <featureType>HAAR</featureType>
  <height>24</height>
  <width>24</width>
  <stageParams>
    <boostType>GAB</boostType>
    <minHitRate>9.9500000476837158e-01</minHitRate>
    <maxFalseAlarm>5.0000000000000000e-01</maxFalseAlarm>
    <weightTrimRate>9.4999998807907104e-01</weightTrimRate>
    <maxDepth>1</maxDepth>
    <maxWeakCount>100</maxWeakCount></stageParams>
  <featureParams>
    <maxCatCount>0</maxCatCount>
    <featSize>1</featSize>
    <mode>BASIC</mode></featureParams>
  <stageNum>11</stageNum>
  <stages>
    <!-- stage 0 -->
    <_>
      <maxWeakCount>6</maxWeakCount>
      <stageThreshold>-1.3950747251510620e+00</stageThreshold>
      <weakClassifiers>
        <_>
          <internalNodes>
            0 -1 3 -3.3894091844558716e-02</internalNodes>
          <leafValues>
            1. -9.0839695930480957e-01</leafValues></_>
        <_>
          <internalNodes>
            0 -1 8 -2.3162564262747765e-02</internalNodes>
          <leafValues>
            8.5573613643646240e-01 -7.3083263635635376e-01</leafValues></_>
        <_>
          <internalNodes>
            0 -1 59 -7.4011266406159848e-05</internalNodes>
          <leafValues>
            -9.4598150253295898e-01 2.4264967441558838e-01</leafValues></_>
        <_>
          <internalNodes>
            0 -1 29 3.9680182933807373e-02</internalNodes>
          <leafValues>
            -4.3247216939926147e-01 7.3497647047042847e-01</leafValues></_>
        <_>
          <internalNodes>
            0 -1 53 5.2087791264057159e-02</internalNodes>
          <leafValues>
            -3.0229479074478149e-01 8.5110461711883545e-01</leafValues></_>
        <_>
          <internalNodes>
            0 -1 17 -1.6650542616844177e-02</internalNodes>
          <leafValues>
            7.3627221584320068e-01 -3.3185783028602600e-01</leafValues></_></weakClassifiers></_>
    <!-- stage 1 -->
    <_>
      <maxWeakCount>5</maxWeakCount>
      <stageThreshold>-1.6709562540054321e+00</stageThreshold>
      <weakClassifiers>
        <_>
          <internalNodes>
            0 -1 54 -1.0500202327966690e-01</internalNodes>
          <leafValues>
            4.7826087474822998e-01 -9.0057361125946045e-01</leafValues></_>
        <_>
          <internalNodes>
            0 -1 6 -6.5286770462989807e-02</internalNodes>
          <leafValues>
            6.8448328971862793e-01 -6.2669014930725098e-01</leafValues></_>
        <_>
          <internalNodes>
            0 -1 12 1.1087870225310326e-02</internalNodes>
          <leafValues>
            -4.7903665900230408e-01 5.9371316432952881e-01</leafValues></_>
        <_>
          <internalNodes>
            0 -1 47 6.8675815127789974e-03</internalNodes>
          <leafValues>
            -3.6894413828849792e-01 7.1076506376266479e-01</leafValues></_>
        <_>
          <internalNodes>
            0 -1 50 1.0912411846220493e-02</internalNodes>
          <leafValues>
            -3.7542086839675903e-01 7.3092263936996460e-01</leafValues></_></weakClassifiers></_>
    <!-- stage 2 -->
    <_>
      <maxWeakCount>7</maxWeakCount>
      <stageThreshold>-1.5443241596221924e+00</stageThreshold>
      <weakClassifiers>
        <_>
          <internalNodes>
            0 -1 39 2.7459155768156052e-02</internalNodes>
          <leafValues>
            -8.8857412338256836e-01 1.</leafValues></_>
        <_>
          <internalNodes>
            0 -1 34 9.1622304171323776e-03</internalNodes>
          <leafValues>
            -6.6248214244842529e-01 4.0259221196174622e-01</leafValues></_>
        <_>
          <internalNodes>
            0 -1 0 -1.4228746294975281e-02</internalNodes>
          <leafValues>
            3.2812753319740295e-01 -5.7626181840896606e-01</leafValues></_>
        <_>
          <internalNodes>
            0 -1 13 -6.5712168812751770e-02</internalNodes>
          <leafValues>
            -9.1026538610458374e-01 1.8628972768783569e-01</leafValues></_>
        <_>
          <internalNodes>
            0 -1 57 4.6479111188091338e-04</internalNodes>
          <leafValues>
            -7.2640633583068848e-01 2.9821389913558960e-01</leafValues></_>
        <_>
          <internalNodes>
            0 -1 37 8.1920223310589790e-03</internalNodes>
          <leafValues>
            -3.2553550601005554e-01 7.3006933927536011e-01</leafValues></_>
        <_>
          <internalNodes>
            0 -1 5 -3.9639748632907867e-02</internalNodes>
          <leafValues>
            6.1619162559509277e-01 -3.3508574962615967e-01</leafValues></_></weakClassifiers></_>
    <!-- stage 3 -->
    <_>
      <maxWeakCount>5</maxWeakCount>
      <stageThreshold>-1.5707827806472778e+00</stageThreshold>
      <weakClassifiers>
        <_>
          <internalNodes>
            0 -1 35 2.2732874378561974e-02</internalNodes>
          <leafValues>
            -8.9184063673019409e-01 6.0000002384185791e-01</leafValues></_>
        <_>
          <internalNodes>
            0 -1 32 1.2568224221467972e-02</internalNodes>
          <leafValues>
            -6.5446454286575317e-01 3.1242129206657410e-01</leafValues></_>
        <_>
          <internalNodes>
            0 -1 49 -2.3243729956448078e-03</internalNodes>
          <leafValues>
            5.5833566188812256e-01 -3.8588604331016541e-01</leafValues></_>
        <_>
          <internalNodes>
            0 -1 19 -3.2651923596858978e-02</internalNodes>
          <leafValues>
            -7.6215440034866333e-01 2.1757660806179047e-01</leafValues></_>
        <_>
          <internalNodes>
            0 -1 58 -2.4977824650704861e-03</internalNodes>
          <leafValues>
            -8.0038988590240479e-01 1.7053952813148499e-01</leafValues></_></weakClassifiers></_>
    <!-- stage 4 -->
    <_>
      <maxWeakCount>5</maxWeakCount>
      <stageThreshold>-1.3707289695739746e+00</stageThreshold>
      <weakClassifiers>
        <_>
          <internalNodes>
            0 -1 55 9.7691833972930908e-02</internalNodes>
          <leafValues>
            -8.9333331584930420e-01 3.6842104792594910e-01</leafValues></_>
        <_>
          <internalNodes>
            0 -1 36 -1.3483555987477303e-02</internalNodes>
          <leafValues>
            4.5139583945274353e-01 -5.9923660755157471e-01</leafValues></_>
        <_>
          <internalNodes>
            0 -1 38 2.9390498995780945e-02</internalNodes>
          <leafValues>
            1.7856079339981079e-01 -7.9980617761611938e-01</leafValues></_>
        <_>
          <internalNodes>
            0 -1 27 1.7230650410056114e-02</internalNodes>
          <leafValues>
            -2.5014367699623108e-01 7.3513174057006836e-01</leafValues></_>
        <_>
          <internalNodes>
            0 -1 51 -2.2534698247909546e-02</internalNodes>
          <leafValues>
            -1. 1.9342377781867981e-01</leafValues></_></weakClassifiers></_>
    <!-- stage 5 -->
    <_>
      <maxWeakCount>5</maxWeakCount>
      <stageThreshold>-1.7268750667572021e+00</stageThreshold>
      <weakClassifiers>
        <_>
          <internalNodes>
            0 -1 26 3.0514137819409370e-02</internalNodes>
          <leafValues>
            -8.9015150070190430e-01 6.9230771064758301e-01</leafValues></_>
        <_>
          <internalNodes>
            0 -1 44 -8.5500283166766167e-03</internalNodes>
          <leafValues>
            4.5340514183044434e-01 -6.4748024940490723e-01</leafValues></_>
        <_>
          <internalNodes>
            0 -1 22 2.6812225580215454e-02</internalNodes>
          <leafValues>
            -4.5802274346351624e-01 4.1599711775779724e-01</leafValues></_>
        <_>
          <internalNodes>
            0 -1 40 9.4860466197133064e-03</internalNodes>
          <leafValues>
            -2.6437139511108398e-01 7.6599395275115967e-01</leafValues></_>
        <_>
          <internalNodes>
            0 -1 16 6.2279147095978260e-03</internalNodes>
          <leafValues>
            -3.4086909890174866e-01 5.9053421020507813e-01</leafValues></_></weakClassifiers></_>
    <!-- stage 6 -->
    <_>
      <maxWeakCount>5</maxWeakCount>
      <stageThreshold>-1.5916895866394043e+00</stageThreshold>
      <weakClassifiers>
        <_>
          <internalNodes>
            0 -1 23 -3.3847071230411530e-02</internalNodes>
          <leafValues>
            5.5555558204650879e-01 -8.9533776044845581e-01</leafValues></_>
        <_>
          <internalNodes>
            0 -1 14 -1.1394573375582695e-02</internalNodes>
          <leafValues>
            1.9342775642871857e-01 -6.6990137100219727e-01</leafValues></_>
        <_>
          <internalNodes>
            0 -1 24 2.1598197519779205e-02</internalNodes>
          <leafValues>
            -3.1861954927444458e-01 6.3170111179351807e-01</leafValues></_>
        <_>
          <internalNodes>
            0 -1 52 -6.9409620482474566e-04</internalNodes>
          <leafValues>
            -9.0195679664611816e-01 2.0497967302799225e-01</leafValues></_>
        <_>
          <internalNodes>
            0 -1 7 -1.7090436071157455e-02</internalNodes>
          <leafValues>
            -7.7613967657089233e-01 2.0540374517440796e-01</leafValues></_></weakClassifiers></_>
    <!-- stage 7 -->
    <_>
      <maxWeakCount>5</maxWeakCount>
      <stageThreshold>-1.4709410667419434e+00</stageThreshold>
      <weakClassifiers>
        <_>
          <internalNodes>
            0 -1 20 -1.4775373041629791e-02</internalNodes>
          <leafValues>
            8.3333331346511841e-01 -8.9025545120239258e-01</leafValues></_>
        <_>
          <internalNodes>
            0 -1 14 -3.1503509730100632e-02</internalNodes>
          <leafValues>
            4.7618216276168823e-01 -5.9751480817794800e-01</leafValues></_>
        <_>
          <internalNodes>
            0 -1 9 3.1002424657344818e-02</internalNodes>
          <leafValues>
            1.1871130764484406e-01 -9.6287900209426880e-01</leafValues></_>
        <_>
          <internalNodes>
            0 -1 43 2.0947530865669250e-02</internalNodes>
          <leafValues>
            -2.6275303959846497e-01 7.3150449991226196e-01</leafValues></_>
        <_>
          <internalNodes>
            0 -1 1 4.6560849295929074e-04</internalNodes>
          <leafValues>
            2.3048993945121765e-01 -8.3338665962219238e-01</leafValues></_></weakClassifiers></_>
    <!-- stage 8 -->
    <_>
      <maxWeakCount>6</maxWeakCount>
      <stageThreshold>-1.8435813188552856e+00</stageThreshold>
      <weakClassifiers>
        <_>
          <internalNodes>
            0 -1 30 -3.7809569388628006e-02</internalNodes>
          <leafValues>
            3.8461539149284363e-01 -8.8636362552642822e-01</leafValues></_>
        <_>
          <internalNodes>
            0 -1 18 1.5715561807155609e-02</internalNodes>
          <leafValues>
            -5.6322830915451050e-01 5.1687002182006836e-01</leafValues></_>
        <_>
          <internalNodes>
            0 -1 28 2.4581449106335640e-03</internalNodes>
          <leafValues>
            -4.1818714141845703e-01 3.6717301607131958e-01</leafValues></_>
        <_>
          <internalNodes>
            0 -1 4 -2.9321130365133286e-02</internalNodes>
          <leafValues>
            5.3718221187591553e-01 -3.2757124304771423e-01</leafValues></_>
        <_>
          <internalNodes>
            0 -1 10 2.8509244322776794e-02</internalNodes>
          <leafValues>
            -2.8823295235633850e-01 5.6911373138427734e-01</leafValues></_>
        <_>
          <internalNodes>
            0 -1 56 6.5193236805498600e-03</internalNodes>
          <leafValues>
            -6.3097709417343140e-01 2.5734871625900269e-01</leafValues></_></weakClassifiers></_>
    <!-- stage 9 -->
    <_>
      <maxWeakCount>6</maxWeakCount>
      <stageThreshold>-1.8291418552398682e+00</stageThreshold>
      <weakClassifiers>
        <_>
          <internalNodes>
            0 -1 31 2.7285134419798851e-02</internalNodes>
          <leafValues>
            -8.9333331584930420e-01 3.6842104792594910e-01</leafValues></_>
        <_>
          <internalNodes>
            0 -1 15 -2.4062983691692352e-02</internalNodes>
          <leafValues>
            3.8595354557037354e-01 -5.9985584020614624e-01</leafValues></_>
        <_>
          <internalNodes>
            0 -1 60 5.6958070490509272e-04</internalNodes>
          <leafValues>
            1.5591385960578918e-01 -6.9959473609924316e-01</leafValues></_>
        <_>
          <internalNodes>
            0 -1 2 -6.2574814073741436e-03</internalNodes>
          <leafValues>
            -8.7594717741012573e-01 1.2970139086246490e-01</leafValues></_>
        <_>
          <internalNodes>
            0 -1 33 3.5930646117776632e-03</internalNodes>
          <leafValues>
            1.2777163088321686e-01 -9.2138218879699707e-01</leafValues></_>
        <_>
          <internalNodes>
            0 -1 46 -5.7411785237491131e-03</internalNodes>
          <leafValues>
            -9.6202224493026733e-01 1.0616911947727203e-01</leafValues></_></weakClassifiers></_>
    <!-- stage 10 -->
    <_>
      <maxWeakCount>7</maxWeakCount>
      <stageThreshold>-1.6132460832595825e+00</stageThreshold>
      <weakClassifiers>
        <_>
          <internalNodes>
            0 -1 21 5.1875017583370209e-02</internalNodes>
          <leafValues>
            -8.8479697704315186e-01 6.0000002384185791e-01</leafValues></_>
        <_>
          <internalNodes>
            0 -1 41 -3.6976821720600128e-02</internalNodes>
          <leafValues>
            2.5549313426017761e-01 -6.1128979921340942e-01</leafValues></_>
        <_>
          <internalNodes>
            0 -1 42 -2.7646562084555626e-03</internalNodes>
          <leafValues>
            -8.8088482618331909e-01 7.4580594897270203e-02</leafValues></_>
        <_>
          <internalNodes>
            0 -1 48 3.7863925099372864e-02</internalNodes>
          <leafValues>
            -2.1096689999103546e-01 6.2017846107482910e-01</leafValues></_>
        <_>
          <internalNodes>
            0 -1 25 -2.4299295619130135e-03</internalNodes>
          <leafValues>
            4.4550219178199768e-01 -3.1779184937477112e-01</leafValues></_>
        <_>
          <internalNodes>
            0 -1 11 -8.3326929598115385e-05</internalNodes>
          <leafValues>
            3.3788594603538513e-01 -4.1922780871391296e-01</leafValues></_>
        <_>
          <internalNodes>
            0 -1 45 1.4731873758137226e-02</internalNodes>
          <leafValues>
            1.4885731041431427e-01 -8.3201247453689575e-01</leafValues></_></weakClassifiers></_></stages>
  <features>
    <_>
      <rects>
        <_>
          0 5 24 4 -1.</_>
        <_>
          12 5 12 4 2.</_></rects>
      <tilted>0</tilted></_>
    <_>
      <rects>
        <_>
          0 6 1 3 -1.</_>
        <_>
          0 7 1 1 3.</_></rects>
      <tilted>0</tilted></_>
    <_>
      <rects>
        <_>
          0 9 3 9 -1.</_>
        <_>
          0 12 3 3 3.</_></rects>
      <tilted>0</tilted></_>
    <_>
      <rects>
        <_>
          0 9 15 3 -1.</_>
        <_>
          0 10 15 1 3.</_></rects>
      <tilted>0</tilted></_>
    <_>
      <rects>
        <_>
          0 12 8 7 -1.</_>
        <_>
          4 12 4 7 2.</_></rects>
      <tilted>0</tilted></_>
    <_>
      <rects>
        <_>
          0 14 21 3 -1.</_>
        <_>
          7 14 7 3 3.</_></rects>
      <tilted>0</tilted></_>
    <_>
      <rects>
        <_>
          1 7 9 9 -1.</_>
        <_>
          4 7 3 9 3.</_></rects>
      <tilted>0</tilted></_>
    <_>
      <rects>
        <_>
          1 8 4 14 -1.</_>
        <_>
          1 15 4 7 2.</_></rects>
      <tilted>0</tilted></_>
    <_>
      <rects>
        <_>
          1 8 12 3 -1.</_>
        <_>
          1 9 12 1 3.</_></rects>
      <tilted>0</tilted></_>
    <_>
      <rects>
        <_>
          2 8 10 10 -1.</_>
        <_>
          2 13 10 5 2.</_></rects>
      <tilted>0</tilted></_>
    <_>
      <rects>
        <_>
          2 9 9 7 -1.</_>
        <_>
          5 9 3 7 3.</_></rects>
      <tilted>0</tilted></_>
    <_>
      <rects>
        <_>
          2 9 5 3 -1.</_>
        <_>
          2 10 5 1 3.</_></rects>
      <tilted>0</tilted></_>
    <_>
      <rects>
        <_>
          3 9 6 7 -1.</_>
        <_>
          5 9 2 7 3.</_></rects>
      <tilted>0</tilted></_>
    <_>
      <rects>
        <_>
          4 0 20 18 -1.</_>
        <_>
          4 6 20 6 3.</_></rects>
      <tilted>0</tilted></_>
    <_>
      <rects>
        <_>
          4 6 15 3 -1.</_>
        <_>
          4 7 15 1 3.</_></rects>
      <tilted>0</tilted></_>
    <_>
      <rects>
        <_>
          4 8 6 3 -1.</_>
        <_>
          4 9 6 1 3.</_></rects>
      <tilted>0</tilted></_>
    <_>
      <rects>
        <_>
          4 13 7 3 -1.</_>
        <_>
          4 14 7 1 3.</_></rects>
      <tilted>0</tilted></_>
    <_>
      <rects>
        <_>
          4 15 12 4 -1.</_>
        <_>
          4 17 12 2 2.</_></rects>
      <tilted>0</tilted></_>
    <_>
      <rects>
        <_>
          5 2 2 4 -1.</_>
        <_>
          5 4 2 2 2.</_></rects>
      <tilted>0</tilted></_>
    <_>
      <rects>
        <_>
          5 2 8 16 -1.</_>
        <_>
          5 10 8 8 2.</_></rects>
      <tilted>0</tilted></_>
    <_>
      <rects>
        <_>
          5 5 4 2 -1.</_>
        <_>
          5 6 4 1 2.</_></rects>
      <tilted>0</tilted></_>
    <_>
      <rects>
        <_>
          5 9 6 3 -1.</_>
        <_>
          5 10 6 1 3.</_></rects>
      <tilted>0</tilted></_>
    <_>
      <rects>
        <_>
          5 9 14 12 -1.</_>
        <_>
          5 13 14 4 3.</_></rects>
      <tilted>0</tilted></_>
    <_>
      <rects>
        <_>
          5 10 7 3 -1.</_>
        <_>
          5 11 7 1 3.</_></rects>
      <tilted>0</tilted></_>
    <_>
      <rects>
        <_>
          5 10 11 3 -1.</_>
        <_>
          5 11 11 1 3.</_></rects>
      <tilted>0</tilted></_>
    <_>
      <rects>
        <_>
          6 4 2 6 -1.</_>
        <_>
          6 7 2 3 2.</_></rects>
      <tilted>0</tilted></_>
    <_>
      <rects>
        <_>
          6 7 4 3 -1.</_>
        <_>
          6 8 4 1 3.</_></rects>
      <tilted>0</tilted></_>
    <_>
      <rects>
        <_>
          6 8 16 2 -1.</_>
        <_>
          6 8 8 1 2.</_>
        <_>
          14 9 8 1 2.</_></rects>
      <tilted>0</tilted></_>
    <_>
      <rects>
        <_>
          6 12 12 2 -1.</_>
        <_>
          6 13 12 1 2.</_></rects>
      <tilted>0</tilted></_>
    <_>
      <rects>
        <_>
          7 0 10 6 -1.</_>
        <_>
          7 3 10 3 2.</_></rects>
      <tilted>0</tilted></_>
    <_>
      <rects>
        <_>
          7 9 9 2 -1.</_>
        <_>
          7 10 9 1 2.</_></rects>
      <tilted>0</tilted></_>
    <_>
      <rects>
        <_>
          7 11 5 3 -1.</_>
        <_>
          7 12 5 1 3.</_></rects>
      <tilted>0</tilted></_>
    <_>
      <rects>
        <_>
          7 13 9 3 -1.</_>
        <_>
          7 14 9 1 3.</_></rects>
      <tilted>0</tilted></_>
    <_>
      <rects>
        <_>
          8 0 9 1 -1.</_>
        <_>
          11 0 3 1 3.</_></rects>
      <tilted>0</tilted></_>
    <_>
      <rects>
        <_>
          8 4 6 2 -1.</_>
        <_>
          8 5 6 1 2.</_></rects>
      <tilted>0</tilted></_>
    <_>
      <rects>
        <_>
          8 5 4 3 -1.</_>
        <_>
          8 6 4 1 3.</_></rects>
      <tilted>0</tilted></_>
    <_>
      <rects>
        <_>
          8 5 16 2 -1.</_>
        <_>
          8 5 8 1 2.</_>
        <_>
          16 6 8 1 2.</_></rects>
      <tilted>0</tilted></_>
    <_>
      <rects>
        <_>
          8 6 7 2 -1.</_>
        <_>
          8 7 7 1 2.</_></rects>
      <tilted>0</tilted></_>
    <_>
      <rects>
        <_>
          8 6 14 10 -1.</_>
        <_>
          8 11 14 5 2.</_></rects>
      <tilted>0</tilted></_>
    <_>
      <rects>
        <_>
          8 8 4 3 -1.</_>
        <_>
          8 9 4 1 3.</_></rects>
      <tilted>0</tilted></_>
    <_>
      <rects>
        <_>
          8 13 10 2 -1.</_>
        <_>
          8 13 5 1 2.</_>
        <_>
          13 14 5 1 2.</_></rects>
      <tilted>0</tilted></_>
    <_>
      <rects>
        <_>
          8 15 8 6 -1.</_>
        <_>
          8 18 8 3 2.</_></rects>
      <tilted>0</tilted></_>
    <_>
      <rects>
        <_>
          9 0 6 1 -1.</_>
        <_>
          12 0 3 1 2.</_></rects>
      <tilted>0</tilted></_>
    <_>
      <rects>
        <_>
          9 6 7 3 -1.</_>
        <_>
          9 7 7 1 3.</_></rects>
      <tilted>0</tilted></_>
    <_>
      <rects>
        <_>
          9 7 3 3 -1.</_>
        <_>
          9 8 3 1 3.</_></rects>
      <tilted>0</tilted></_>
    <_>
      <rects>
        <_>
          9 15 6 8 -1.</_>
        <_>
          12 15 3 8 2.</_></rects>
      <tilted>0</tilted></_>
    <_>
      <rects>
        <_>
          9 20 6 2 -1.</_>
        <_>
          11 20 2 2 3.</_></rects>
      <tilted>0</tilted></_>
    <_>
      <rects>
        <_>
          10 13 6 2 -1.</_>
        <_>
          12 13 2 2 3.</_></rects>
      <tilted>0</tilted></_>
    <_>
      <rects>
        <_>
          11 6 6 16 -1.</_>
        <_>
          13 6 2 16 3.</_></rects>
      <tilted>0</tilted></_>
    <_>
      <rects>
        <_>
          11 13 1 3 -1.</_>
        <_>
          11 14 1 1 3.</_></rects>
      <tilted>0</tilted></_>
    <_>
      <rects>
        <_>
          12 8 4 8 -1.</_>
        <_>
          14 8 2 8 2.</_></rects>
      <tilted>0</tilted></_>
    <_>
      <rects>
        <_>
          13 7 8 9 -1.</_>
        <_>
          13 10 8 3 3.</_></rects>
      <tilted>0</tilted></_>
    <_>
      <rects>
        <_>
          15 0 4 1 -1.</_>
        <_>
          17 0 2 1 2.</_></rects>
      <tilted>0</tilted></_>
    <_>
      <rects>
        <_>
          15 2 6 17 -1.</_>
        <_>
          17 2 2 17 3.</_></rects>
      <tilted>0</tilted></_>
    <_>
      <rects>
        <_>
          15 8 9 8 -1.</_>
        <_>
          18 8 3 8 3.</_></rects>
      <tilted>0</tilted></_>
    <_>
      <rects>
        <_>
          17 1 6 18 -1.</_>
        <_>
          20 1 3 18 2.</_></rects>
      <tilted>0</tilted></_>
    <_>
      <rects>
        <_>
          19 4 2 20 -1.</_>
        <_>
          19 14 2 10 2.</_></rects>
      <tilted>0</tilted></_>
    <_>
      <rects>
        <_>
          19 8 2 16 -1.</_>
        <_>
          19 16 2 8 2.</_></rects>
      <tilted>0</tilted></_>
    <_>
      <rects>
        <_>
          19 11 3 6 -1.</_>
        <_>
          19 13 3 2 3.</_></rects>
      <tilted>0</tilted></_>
    <_>
      <rects>
        <_>
          20 2 4 20 -1.</_>
        <_>
          20 12 4 10 2.</_></rects>
      <tilted>0</tilted></_>
    <_>
      <rects>
        <_>
          22 8 1 6 -1.</_>
        <_>
          22 10 1 2 3.</_></rects>
      <tilted>0</tilted></_></features></cascade>
</opencv_storage>
