<?xml version="1.0"?>
<opencv_storage>
<cascade>
  <stageType>BOOST</stageType>
  <featureType>HAAR</featureType>
  <height>24</height>
  <width>24</width>
  <stageParams>
    <boostType>GAB</boostType>
    <minHitRate>9.9500000476837158e-01</minHitRate>
    <maxFalseAlarm>5.0000000000000000e-01</maxFalseAlarm>
    <weightTrimRate>9.4999998807907104e-01</weightTrimRate>
    <maxDepth>1</maxDepth>
    <maxWeakCount>100</maxWeakCount></stageParams>
  <featureParams>
    <maxCatCount>0</maxCatCount>
    <featSize>1</featSize>
    <mode>BASIC</mode></featureParams>
  <stageNum>20</stageNum>
  <stages>
    <!-- stage 0 -->
    <_>
      <maxWeakCount>6</maxWeakCount>
      <stageThreshold>-2.0518653392791748e+00</stageThreshold>
      <weakClassifiers>
        <_>
          <internalNodes>
            0 -1 83 1.4052975177764893e-01</internalNodes>
          <leafValues>
            -8.7673956155776978e-01 1.2500000000000000e-01</leafValues></_>
        <_>
          <internalNodes>
            0 -1 67 2.4155842140316963e-02</internalNodes>
          <leafValues>
            -7.5662434101104736e-01 1.4524693787097931e-01</leafValues></_>
        <_>
          <internalNodes>
            0 -1 201 -2.7982701431028545e-04</internalNodes>
          <leafValues>
            -8.3768075704574585e-01 1.0133317857980728e-01</leafValues></_>
        <_>
          <internalNodes>
            0 -1 201 2.2481454652734101e-04</internalNodes>
          <leafValues>
            2.8495109081268311e-01 -6.2260639667510986e-01</leafValues></_>
        <_>
          <internalNodes>
            0 -1 163 4.7883470542728901e-03</internalNodes>
          <leafValues>
            -4.7252228856086731e-01 3.9705860614776611e-01</leafValues></_>
        <_>
          <internalNodes>
            0 -1 117 2.6428941637277603e-02</internalNodes>
          <leafValues>
            -3.2657733559608459e-01 5.0541752576828003e-01</leafValues></_></weakClassifiers></_>
    <!-- stage 1 -->
    <_>
      <maxWeakCount>7</maxWeakCount>
      <stageThreshold>-1.5854836702346802e+00</stageThreshold>
      <weakClassifiers>
        <_>
          <internalNodes>
            0 -1 141 6.7514926195144653e-02</internalNodes>
          <leafValues>
            -8.4615385532379150e-01 1.4893616735935211e-01</leafValues></_>
        <_>
          <internalNodes>
            0 -1 161 1.3228063471615314e-02</internalNodes>
          <leafValues>
            -5.5542457103729248e-01 3.9047649502754211e-01</leafValues></_>
        <_>
          <internalNodes>
            0 -1 12 -3.9581231772899628e-02</internalNodes>
          <leafValues>
            4.0423008799552917e-01 -4.5894467830657959e-01</leafValues></_>
        <_>
          <internalNodes>
            0 -1 24 7.4483333155512810e-03</internalNodes>
          <leafValues>
            -2.6364058256149292e-01 6.1766380071640015e-01</leafValues></_>
        <_>
          <internalNodes>
            0 -1 0 7.9700499773025513e-03</internalNodes>
          <leafValues>
            -6.0559463500976563e-01 2.8547951579093933e-01</leafValues></_>
        <_>
          <internalNodes>
            0 -1 54 -7.9091917723417282e-04</internalNodes>
          <leafValues>
            4.9377921223640442e-01 -3.7564897537231445e-01</leafValues></_>
        <_>
          <internalNodes>
            0 -1 118 -1.0127575695514679e-01</internalNodes>
          <leafValues>
            7.7903598546981812e-01 -2.1267937123775482e-01</leafValues></_></weakClassifiers></_>
    <!-- stage 2 -->
    <_>
      <maxWeakCount>5</maxWeakCount>
      <stageThreshold>-1.5653376579284668e+00</stageThreshold>
      <weakClassifiers>
        <_>
          <internalNodes>
            0 -1 63 1.4604986645281315e-02</internalNodes>
          <leafValues>
            -8.2867783308029175e-01 4.0000000596046448e-01</leafValues></_>
        <_>
          <internalNodes>
            0 -1 169 -7.8696031123399734e-03</internalNodes>
          <leafValues>
            4.9176520109176636e-01 -5.4184418916702271e-01</leafValues></_>
        <_>
          <internalNodes>
            0 -1 171 5.6758583523333073e-03</internalNodes>
          <leafValues>
            -3.1076997518539429e-01 7.0495587587356567e-01</leafValues></_>
        <_>
          <internalNodes>
            0 -1 142 -9.9455723538994789e-03</internalNodes>
          <leafValues>
            4.6129614114761353e-01 -4.2346373200416565e-01</leafValues></_>
        <_>
          <internalNodes>
            0 -1 90 -9.6348352963104844e-04</internalNodes>
          <leafValues>
            5.3941804170608521e-01 -3.4176704287528992e-01</leafValues></_></weakClassifiers></_>
    <!-- stage 3 -->
    <_>
      <maxWeakCount>8</maxWeakCount>
      <stageThreshold>-1.6342495679855347e+00</stageThreshold>
      <weakClassifiers>
        <_>
          <internalNodes>
            0 -1 134 6.3644200563430786e-02</internalNodes>
          <leafValues>
            -8.2302570343017578e-01 -1.2048192322254181e-02</leafValues></_>
        <_>
          <internalNodes>
            0 -1 136 1.0000739246606827e-02</internalNodes>
          <leafValues>
            -6.4253628253936768e-01 1.0082060843706131e-01</leafValues></_>
        <_>
          <internalNodes>
            0 -1 184 7.4499242007732391e-02</internalNodes>
          <leafValues>
            -2.2374823689460754e-01 7.0341873168945313e-01</leafValues></_>
        <_>
          <internalNodes>
            0 -1 182 -1.7432954162359238e-02</internalNodes>
          <leafValues>
            4.9355599284172058e-01 -2.4626922607421875e-01</leafValues></_>
        <_>
          <internalNodes>
            0 -1 41 9.2268493026494980e-03</internalNodes>
          <leafValues>
            -5.1935869455337524e-01 2.7871102094650269e-01</leafValues></_>
        <_>
          <internalNodes>
            0 -1 107 -2.4985030759125948e-03</internalNodes>
          <leafValues>
            4.7403049468994141e-01 -3.0159527063369751e-01</leafValues></_>
        <_>
          <internalNodes>
            0 -1 157 3.9145316928625107e-02</internalNodes>
          <leafValues>
            -2.4663159251213074e-01 5.0659054517745972e-01</leafValues></_>
        <_>
          <internalNodes>
            0 -1 6 -1.5826705843210220e-02</internalNodes>
          <leafValues>
            7.0376145839691162e-01 -1.6897954046726227e-01</leafValues></_></weakClassifiers></_>
    <!-- stage 4 -->
    <_>
      <maxWeakCount>10</maxWeakCount>
      <stageThreshold>-1.7509983777999878e+00</stageThreshold>
      <weakClassifiers>
        <_>
          <internalNodes>
            0 -1 71 2.1819719672203064e-01</internalNodes>
          <leafValues>
            -8.2840800285339355e-01 3.5294119268655777e-02</leafValues></_>
        <_>
          <internalNodes>
            0 -1 88 -1.2310767173767090e-01</internalNodes>
          <leafValues>
            4.4308349490165710e-01 -4.4345387816429138e-01</leafValues></_>
        <_>
          <internalNodes>
            0 -1 123 4.6772036701440811e-02</internalNodes>
          <leafValues>
            -2.6767843961715698e-01 4.7791227698326111e-01</leafValues></_>
        <_>
          <internalNodes>
            0 -1 160 -1.0115644335746765e-01</internalNodes>
          <leafValues>
            5.1203221082687378e-01 -2.1781714260578156e-01</leafValues></_>
        <_>
          <internalNodes>
            0 -1 72 4.7313798218965530e-02</internalNodes>
          <leafValues>
            1.4839226007461548e-01 -9.2138606309890747e-01</leafValues></_>
        <_>
          <internalNodes>
            0 -1 154 -9.8456395789980888e-04</internalNodes>
          <leafValues>
            4.9870827794075012e-01 -2.4890433251857758e-01</leafValues></_>
        <_>
          <internalNodes>
            0 -1 203 7.9283688683062792e-04</internalNodes>
          <leafValues>
            2.0104005932807922e-01 -6.6628718376159668e-01</leafValues></_>
        <_>
          <internalNodes>
            0 -1 202 -3.9938691770657897e-04</internalNodes>
          <leafValues>
            -5.9417581558227539e-01 2.0909568667411804e-01</leafValues></_>
        <_>
          <internalNodes>
            0 -1 105 1.6867879778146744e-02</internalNodes>
          <leafValues>
            -3.4924295544624329e-01 3.6588510870933533e-01</leafValues></_>
        <_>
          <internalNodes>
            0 -1 152 -7.7042743214406073e-05</internalNodes>
          <leafValues>
            3.8590735197067261e-01 -3.4838250279426575e-01</leafValues></_></weakClassifiers></_>
    <!-- stage 5 -->
    <_>
      <maxWeakCount>8</maxWeakCount>
      <stageThreshold>-1.5590764284133911e+00</stageThreshold>
      <weakClassifiers>
        <_>
          <internalNodes>
            0 -1 76 -2.3202301934361458e-02</internalNodes>
          <leafValues>
            7.5999999046325684e-01 -7.9801625013351440e-01</leafValues></_>
        <_>
          <internalNodes>
            0 -1 75 5.5631399154663086e-03</internalNodes>
          <leafValues>
            -4.3093970417976379e-01 4.6961209177970886e-01</leafValues></_>
        <_>
          <internalNodes>
            0 -1 204 -2.4441909044981003e-03</internalNodes>
          <leafValues>
            -7.3429125547409058e-01 1.3658033311367035e-01</leafValues></_>
        <_>
          <internalNodes>
            0 -1 81 -1.0307518532499671e-03</internalNodes>
          <leafValues>
            3.2429519295692444e-01 -3.5169950127601624e-01</leafValues></_>
        <_>
          <internalNodes>
            0 -1 61 -4.8585779964923859e-02</internalNodes>
          <leafValues>
            -8.1763172149658203e-01 1.6532467305660248e-01</leafValues></_>
        <_>
          <internalNodes>
            0 -1 115 -3.9618802256882191e-03</internalNodes>
          <leafValues>
            -5.8152502775192261e-01 1.8424473702907562e-01</leafValues></_>
        <_>
          <internalNodes>
            0 -1 158 1.8328928947448730e-01</internalNodes>
          <leafValues>
            -1.7289455235004425e-01 7.4328416585922241e-01</leafValues></_>
        <_>
          <internalNodes>
            0 -1 97 -5.4813064634799957e-03</internalNodes>
          <leafValues>
            4.7409358620643616e-01 -2.4953395128250122e-01</leafValues></_></weakClassifiers></_>
    <!-- stage 6 -->
    <_>
      <maxWeakCount>8</maxWeakCount>
      <stageThreshold>-1.6307862997055054e+00</stageThreshold>
      <weakClassifiers>
        <_>
          <internalNodes>
            0 -1 58 2.3899711668491364e-02</internalNodes>
          <leafValues>
            -8.1564247608184814e-01 1.6666667163372040e-01</leafValues></_>
        <_>
          <internalNodes>
            0 -1 59 -1.3685844838619232e-02</internalNodes>
          <leafValues>
            4.6691882610321045e-01 -4.2509371042251587e-01</leafValues></_>
        <_>
          <internalNodes>
            0 -1 80 -3.6391625180840492e-03</internalNodes>
          <leafValues>
            2.8311657905578613e-01 -3.9167907834053040e-01</leafValues></_>
        <_>
          <internalNodes>
            0 -1 198 4.5849994057789445e-04</internalNodes>
          <leafValues>
            1.6281862556934357e-01 -6.7241382598876953e-01</leafValues></_>
        <_>
          <internalNodes>
            0 -1 114 2.1902821026742458e-03</internalNodes>
          <leafValues>
            -1.7454765737056732e-01 6.1925393342971802e-01</leafValues></_>
        <_>
          <internalNodes>
            0 -1 181 6.2549486756324768e-03</internalNodes>
          <leafValues>
            1.3759721815586090e-01 -8.9400255680084229e-01</leafValues></_>
        <_>
          <internalNodes>
            0 -1 172 3.7309208419173956e-03</internalNodes>
          <leafValues>
            -2.6571404933929443e-01 4.1135284304618835e-01</leafValues></_>
        <_>
          <internalNodes>
            0 -1 10 -1.7763136420398951e-03</internalNodes>
          <leafValues>
            -8.1042116880416870e-01 1.4147484302520752e-01</leafValues></_></weakClassifiers></_>
    <!-- stage 7 -->
    <_>
      <maxWeakCount>11</maxWeakCount>
      <stageThreshold>-1.4657195806503296e+00</stageThreshold>
      <weakClassifiers>
        <_>
          <internalNodes>
            0 -1 126 1.4180974662303925e-01</internalNodes>
          <leafValues>
            -8.1661891937255859e-01 -1.2643678486347198e-01</leafValues></_>
        <_>
          <internalNodes>
            0 -1 132 3.8100779056549072e-02</internalNodes>
          <leafValues>
            -4.2464569211006165e-01 3.1272336840629578e-01</leafValues></_>
        <_>
          <internalNodes>
            0 -1 21 3.1293496489524841e-02</internalNodes>
          <leafValues>
            -2.4941918253898621e-01 4.9416714906692505e-01</leafValues></_>
        <_>
          <internalNodes>
            0 -1 119 5.2594882436096668e-04</internalNodes>
          <leafValues>
            -2.5186577439308167e-01 3.9754292368888855e-01</leafValues></_>
        <_>
          <internalNodes>
            0 -1 17 3.2365892548114061e-04</internalNodes>
          <leafValues>
            -2.6991415023803711e-01 3.7471979856491089e-01</leafValues></_>
        <_>
          <internalNodes>
            0 -1 190 5.3446054458618164e-02</internalNodes>
          <leafValues>
            -1.4623725414276123e-01 6.6043883562088013e-01</leafValues></_>
        <_>
          <internalNodes>
            0 -1 62 -2.4909820058383048e-04</internalNodes>
          <leafValues>
            4.0034523606300354e-01 -2.5336989760398865e-01</leafValues></_>
        <_>
          <internalNodes>
            0 -1 48 -1.4089352451264858e-02</internalNodes>
          <leafValues>
            4.0766072273254395e-01 -2.3458367586135864e-01</leafValues></_>
        <_>
          <internalNodes>
            0 -1 82 6.8094587186351418e-04</internalNodes>
          <leafValues>
            -5.4647886753082275e-01 1.8082360923290253e-01</leafValues></_>
        <_>
          <internalNodes>
            0 -1 197 7.1238016244024038e-04</internalNodes>
          <leafValues>
            1.1833791434764862e-01 -7.8062021732330322e-01</leafValues></_>
        <_>
          <internalNodes>
            0 -1 179 1.0755818337202072e-02</internalNodes>
          <leafValues>
            -2.5068014860153198e-01 4.5169797539710999e-01</leafValues></_></weakClassifiers></_>
    <!-- stage 8 -->
    <_>
      <maxWeakCount>14</maxWeakCount>
      <stageThreshold>-1.9314237833023071e+00</stageThreshold>
      <weakClassifiers>
        <_>
          <internalNodes>
            0 -1 125 3.1346570700407028e-02</internalNodes>
          <leafValues>
            -7.9473203420639038e-01 2.7272728085517883e-01</leafValues></_>
        <_>
          <internalNodes>
            0 -1 56 1.3635256886482239e-01</internalNodes>
          <leafValues>
            -4.9678108096122742e-01 1.8457254767417908e-01</leafValues></_>
        <_>
          <internalNodes>
            0 -1 188 -2.0988168194890022e-02</internalNodes>
          <leafValues>
            -7.3049515485763550e-01 1.0199877619743347e-01</leafValues></_>
        <_>
          <internalNodes>
            0 -1 159 8.4583205170929432e-04</internalNodes>
          <leafValues>
            -2.2326181828975677e-01 4.0879172086715698e-01</leafValues></_>
        <_>
          <internalNodes>
            0 -1 95 6.0197147540748119e-03</internalNodes>
          <leafValues>
            -1.9170175492763519e-01 5.2171206474304199e-01</leafValues></_>
        <_>
          <internalNodes>
            0 -1 183 -3.4625157713890076e-03</internalNodes>
          <leafValues>
            4.3324637413024902e-01 -2.1821440756320953e-01</leafValues></_>
        <_>
          <internalNodes>
            0 -1 200 -2.5647514848969877e-04</internalNodes>
          <leafValues>
            -7.0418012142181396e-01 1.4374488592147827e-01</leafValues></_>
        <_>
          <internalNodes>
            0 -1 124 4.1773339034989476e-04</internalNodes>
          <leafValues>
            -2.4656504392623901e-01 4.3981948494911194e-01</leafValues></_>
        <_>
          <internalNodes>
            0 -1 9 1.1945660226047039e-03</internalNodes>
          <leafValues>
            1.2125589698553085e-01 -8.6444789171218872e-01</leafValues></_>
        <_>
          <internalNodes>
            0 -1 165 1.5827104216441512e-03</internalNodes>
          <leafValues>
            -2.1615384519100189e-01 5.0327932834625244e-01</leafValues></_>
        <_>
          <internalNodes>
            0 -1 47 5.9353059623390436e-04</internalNodes>
          <leafValues>
            -2.6558160781860352e-01 4.4166588783264160e-01</leafValues></_>
        <_>
          <internalNodes>
            0 -1 121 -3.6587868817150593e-03</internalNodes>
          <leafValues>
            -7.7024531364440918e-01 1.4547917246818542e-01</leafValues></_>
        <_>
          <internalNodes>
            0 -1 89 1.6284318640828133e-02</internalNodes>
          <leafValues>
            -1.9171126186847687e-01 7.6099479198455811e-01</leafValues></_>
        <_>
          <internalNodes>
            0 -1 140 4.7708908095955849e-03</internalNodes>
          <leafValues>
            -2.5352594256401062e-01 4.0080043673515320e-01</leafValues></_></weakClassifiers></_>
    <!-- stage 9 -->
    <_>
      <maxWeakCount>9</maxWeakCount>
      <stageThreshold>-1.3792489767074585e+00</stageThreshold>
      <weakClassifiers>
        <_>
          <internalNodes>
            0 -1 50 3.0726829543709755e-02</internalNodes>
          <leafValues>
            -8.2022470235824585e-01 1.5151515603065491e-01</leafValues></_>
        <_>
          <internalNodes>
            0 -1 29 1.5929004177451134e-02</internalNodes>
          <leafValues>
            -4.4329130649566650e-01 4.8195734620094299e-01</leafValues></_>
        <_>
          <internalNodes>
            0 -1 39 1.1622278019785881e-02</internalNodes>
          <leafValues>
            -2.3035024106502533e-01 6.2195032835006714e-01</leafValues></_>
        <_>
          <internalNodes>
            0 -1 66 7.4324570596218109e-02</internalNodes>
          <leafValues>
            1.5931755304336548e-01 -8.3715575933456421e-01</leafValues></_>
        <_>
          <internalNodes>
            0 -1 138 -5.0429105758666992e-02</internalNodes>
          <leafValues>
            6.3205701112747192e-01 -1.6451604664325714e-01</leafValues></_>
        <_>
          <internalNodes>
            0 -1 193 2.1536934655159712e-03</internalNodes>
          <leafValues>
            1.9039334356784821e-01 -6.0182845592498779e-01</leafValues></_>
        <_>
          <internalNodes>
            0 -1 98 1.6207161825150251e-03</internalNodes>
          <leafValues>
            -1.9718773663043976e-01 5.9045177698135376e-01</leafValues></_>
        <_>
          <internalNodes>
            0 -1 144 3.9838239899836481e-05</internalNodes>
          <leafValues>
            -3.8733148574829102e-01 2.6797327399253845e-01</leafValues></_>
        <_>
          <internalNodes>
            0 -1 106 5.8353643864393234e-02</internalNodes>
          <leafValues>
            -1.4136303961277008e-01 7.9492819309234619e-01</leafValues></_></weakClassifiers></_>
    <!-- stage 10 -->
    <_>
      <maxWeakCount>11</maxWeakCount>
      <stageThreshold>-2.0239145755767822e+00</stageThreshold>
      <weakClassifiers>
        <_>
          <internalNodes>
            0 -1 101 3.2504595816135406e-02</internalNodes>
          <leafValues>
            -7.8956836462020874e-01 5.4545456171035767e-01</leafValues></_>
        <_>
          <internalNodes>
            0 -1 101 -1.1915527284145355e-02</internalNodes>
          <leafValues>
            3.2555398344993591e-01 -4.2624148726463318e-01</leafValues></_>
        <_>
          <internalNodes>
            0 -1 196 4.1993742343038321e-04</internalNodes>
          <leafValues>
            1.5893812477588654e-01 -6.2733733654022217e-01</leafValues></_>
        <_>
          <internalNodes>
            0 -1 1 8.6307467427104712e-04</internalNodes>
          <leafValues>
            1.0150792449712753e-01 -8.7178987264633179e-01</leafValues></_>
        <_>
          <internalNodes>
            0 -1 33 9.1928336769342422e-03</internalNodes>
          <leafValues>
            -2.8503826260566711e-01 3.5629719495773315e-01</leafValues></_>
        <_>
          <internalNodes>
            0 -1 199 -1.4226789062377065e-04</internalNodes>
          <leafValues>
            -5.0697237253189087e-01 1.9309285283088684e-01</leafValues></_>
        <_>
          <internalNodes>
            0 -1 15 -1.0951757431030273e-03</internalNodes>
          <leafValues>
            -6.5052235126495361e-01 1.5161752700805664e-01</leafValues></_>
        <_>
          <internalNodes>
            0 -1 167 8.4872409934177995e-04</internalNodes>
          <leafValues>
            -1.9374994933605194e-01 4.8475024104118347e-01</leafValues></_>
        <_>
          <internalNodes>
            0 -1 8 -1.8313575536012650e-02</internalNodes>
          <leafValues>
            -8.9270919561386108e-01 1.1941309273242950e-01</leafValues></_>
        <_>
          <internalNodes>
            0 -1 55 4.8799298703670502e-02</internalNodes>
          <leafValues>
            -1.8498256802558899e-01 6.1827743053436279e-01</leafValues></_>
        <_>
          <internalNodes>
            0 -1 102 3.7716224789619446e-02</internalNodes>
          <leafValues>
            -1.6883832216262817e-01 6.6422134637832642e-01</leafValues></_></weakClassifiers></_>
    <!-- stage 11 -->
    <_>
      <maxWeakCount>11</maxWeakCount>
      <stageThreshold>-1.5914100408554077e+00</stageThreshold>
      <weakClassifiers>
        <_>
          <internalNodes>
            0 -1 84 -5.0024785101413727e-02</internalNodes>
          <leafValues>
            7.6470589637756348e-01 -7.8692924976348877e-01</leafValues></_>
        <_>
          <internalNodes>
            0 -1 64 1.8668407574295998e-03</internalNodes>
          <leafValues>
            -4.5162659883499146e-01 2.9808500409126282e-01</leafValues></_>
        <_>
          <internalNodes>
            0 -1 174 1.8917055567726493e-03</internalNodes>
          <leafValues>
            -2.4568490684032440e-01 3.9622184634208679e-01</leafValues></_>
        <_>
          <internalNodes>
            0 -1 175 3.3868188038468361e-03</internalNodes>
          <leafValues>
            -2.0274922251701355e-01 4.5243921875953674e-01</leafValues></_>
        <_>
          <internalNodes>
            0 -1 30 -4.4696971774101257e-02</internalNodes>
          <leafValues>
            -6.3165235519409180e-01 1.5261235833168030e-01</leafValues></_>
        <_>
          <internalNodes>
            0 -1 176 -1.3128287391737103e-03</internalNodes>
          <leafValues>
            5.0563508272171021e-01 -1.7226833105087280e-01</leafValues></_>
        <_>
          <internalNodes>
            0 -1 13 4.8924412112683058e-04</internalNodes>
          <leafValues>
            1.3515767455101013e-01 -6.9612187147140503e-01</leafValues></_>
        <_>
          <internalNodes>
            0 -1 99 -3.9626970887184143e-02</internalNodes>
          <leafValues>
            6.3509905338287354e-01 -1.7287673056125641e-01</leafValues></_>
        <_>
          <internalNodes>
            0 -1 36 3.6655988544225693e-02</internalNodes>
          <leafValues>
            -2.5969219207763672e-01 3.9626941084861755e-01</leafValues></_>
        <_>
          <internalNodes>
            0 -1 26 1.8924253527075052e-03</internalNodes>
          <leafValues>
            -1.9936332106590271e-01 5.1759040355682373e-01</leafValues></_>
        <_>
          <internalNodes>
            0 -1 2 7.2503532283008099e-04</internalNodes>
          <leafValues>
            1.3214004039764404e-01 -7.9453319311141968e-01</leafValues></_></weakClassifiers></_>
    <!-- stage 12 -->
    <_>
      <maxWeakCount>11</maxWeakCount>
      <stageThreshold>-1.5097881555557251e+00</stageThreshold>
      <weakClassifiers>
        <_>
          <internalNodes>
            0 -1 92 -8.6332485079765320e-03</internalNodes>
          <leafValues>
            -6.8965516984462738e-02 -8.0111521482467651e-01</leafValues></_>
        <_>
          <internalNodes>
            0 -1 128 2.6742085814476013e-02</internalNodes>
          <leafValues>
            -4.6246156096458435e-01 2.3458428680896759e-01</leafValues></_>
        <_>
          <internalNodes>
            0 -1 162 2.7420851401984692e-03</internalNodes>
          <leafValues>
            -3.0912929773330688e-01 3.5991269350051880e-01</leafValues></_>
        <_>
          <internalNodes>
            0 -1 177 -1.9831967074424028e-03</internalNodes>
          <leafValues>
            5.5338376760482788e-01 -1.7968265712261200e-01</leafValues></_>
        <_>
          <internalNodes>
            0 -1 195 9.1479619732126594e-04</internalNodes>
          <leafValues>
            1.2097106873989105e-01 -7.6174324750900269e-01</leafValues></_>
        <_>
          <internalNodes>
            0 -1 150 -5.7305302470922470e-04</internalNodes>
          <leafValues>
            3.5974538326263428e-01 -2.4124661087989807e-01</leafValues></_>
        <_>
          <internalNodes>
            0 -1 96 2.1206151694059372e-02</internalNodes>
          <leafValues>
            -1.6651874780654907e-01 5.1975750923156738e-01</leafValues></_>
        <_>
          <internalNodes>
            0 -1 28 1.5559289604425430e-02</internalNodes>
          <leafValues>
            1.8379673361778259e-01 -4.8535013198852539e-01</leafValues></_>
        <_>
          <internalNodes>
            0 -1 11 2.1946985274553299e-02</internalNodes>
          <leafValues>
            1.0240812599658966e-01 -1.</leafValues></_>
        <_>
          <internalNodes>
            0 -1 5 2.6214336976408958e-02</internalNodes>
          <leafValues>
            -1.9269256293773651e-01 5.1743364334106445e-01</leafValues></_>
        <_>
          <internalNodes>
            0 -1 156 -8.8711082935333252e-03</internalNodes>
          <leafValues>
            5.1498132944107056e-01 -1.6510941088199615e-01</leafValues></_></weakClassifiers></_>
    <!-- stage 13 -->
    <_>
      <maxWeakCount>12</maxWeakCount>
      <stageThreshold>-1.9122257232666016e+00</stageThreshold>
      <weakClassifiers>
        <_>
          <internalNodes>
            0 -1 76 2.7809452265501022e-02</internalNodes>
          <leafValues>
            -7.8975743055343628e-01 6.1904764175415039e-01</leafValues></_>
        <_>
          <internalNodes>
            0 -1 60 9.4922035932540894e-03</internalNodes>
          <leafValues>
            -4.5797803997993469e-01 1.9906418025493622e-01</leafValues></_>
        <_>
          <internalNodes>
            0 -1 155 -7.4061853811144829e-03</internalNodes>
          <leafValues>
            -5.6475150585174561e-01 1.2657560408115387e-01</leafValues></_>
        <_>
          <internalNodes>
            0 -1 73 -1.3094812165945768e-03</internalNodes>
          <leafValues>
            4.1174027323722839e-01 -2.3073659837245941e-01</leafValues></_>
        <_>
          <internalNodes>
            0 -1 93 -2.1959990262985229e-03</internalNodes>
          <leafValues>
            3.1540733575820923e-01 -2.9717159271240234e-01</leafValues></_>
        <_>
          <internalNodes>
            0 -1 100 1.8598321825265884e-02</internalNodes>
          <leafValues>
            -3.5086700320243835e-01 3.0668717622756958e-01</leafValues></_>
        <_>
          <internalNodes>
            0 -1 145 6.6128522157669067e-03</internalNodes>
          <leafValues>
            1.5948624908924103e-01 -5.5334252119064331e-01</leafValues></_>
        <_>
          <internalNodes>
            0 -1 187 -1.9781929440796375e-03</internalNodes>
          <leafValues>
            -6.7999398708343506e-01 1.1730656772851944e-01</leafValues></_>
        <_>
          <internalNodes>
            0 -1 44 1.1165733449161053e-02</internalNodes>
          <leafValues>
            1.0519327968358994e-01 -6.8944036960601807e-01</leafValues></_>
        <_>
          <internalNodes>
            0 -1 45 2.1130356471985579e-03</internalNodes>
          <leafValues>
            -1.7832347750663757e-01 5.0488507747650146e-01</leafValues></_>
        <_>
          <internalNodes>
            0 -1 151 9.4938158988952637e-02</internalNodes>
          <leafValues>
            1.0638909786939621e-01 -8.0946022272109985e-01</leafValues></_>
        <_>
          <internalNodes>
            0 -1 34 2.2995801642537117e-02</internalNodes>
          <leafValues>
            -1.8856948614120483e-01 4.9370673298835754e-01</leafValues></_></weakClassifiers></_>
    <!-- stage 14 -->
    <_>
      <maxWeakCount>13</maxWeakCount>
      <stageThreshold>-1.7049432992935181e+00</stageThreshold>
      <weakClassifiers>
        <_>
          <internalNodes>
            0 -1 135 -6.2914878129959106e-02</internalNodes>
          <leafValues>
            -5.2631579339504242e-02 -8.0129992961883545e-01</leafValues></_>
        <_>
          <internalNodes>
            0 -1 78 -7.0657543838024139e-02</internalNodes>
          <leafValues>
            6.2375053763389587e-02 -4.7705295681953430e-01</leafValues></_>
        <_>
          <internalNodes>
            0 -1 7 5.5920677259564400e-03</internalNodes>
          <leafValues>
            8.8695205748081207e-02 -7.2158318758010864e-01</leafValues></_>
        <_>
          <internalNodes>
            0 -1 170 -1.2060382403433323e-02</internalNodes>
          <leafValues>
            4.6873417496681213e-01 -1.6759493947029114e-01</leafValues></_>
        <_>
          <internalNodes>
            0 -1 122 3.0867591500282288e-02</internalNodes>
          <leafValues>
            -9.8748087882995605e-02 7.0909327268600464e-01</leafValues></_>
        <_>
          <internalNodes>
            0 -1 139 -4.3693967163562775e-03</internalNodes>
          <leafValues>
            3.6489501595497131e-01 -2.3732650279998779e-01</leafValues></_>
        <_>
          <internalNodes>
            0 -1 186 -1.2841499410569668e-03</internalNodes>
          <leafValues>
            3.8612902164459229e-01 -2.3289896547794342e-01</leafValues></_>
        <_>
          <internalNodes>
            0 -1 166 7.9977154731750488e-02</internalNodes>
          <leafValues>
            -1.8358606100082397e-01 5.5748599767684937e-01</leafValues></_>
        <_>
          <internalNodes>
            0 -1 168 -5.9779331786558032e-04</internalNodes>
          <leafValues>
            4.4781640172004700e-01 -1.8768976628780365e-01</leafValues></_>
        <_>
          <internalNodes>
            0 -1 133 -5.3852304816246033e-02</internalNodes>
          <leafValues>
            -9.6000230312347412e-01 1.1980263888835907e-01</leafValues></_>
        <_>
          <internalNodes>
            0 -1 164 -4.0650833398103714e-04</internalNodes>
          <leafValues>
            2.4880144000053406e-01 -3.0306813120841980e-01</leafValues></_>
        <_>
          <internalNodes>
            0 -1 68 -1.7452174797654152e-02</internalNodes>
          <leafValues>
            1.9730356335639954e-01 -4.6387439966201782e-01</leafValues></_>
        <_>
          <internalNodes>
            0 -1 131 -7.8682236373424530e-02</internalNodes>
          <leafValues>
            6.3747698068618774e-01 -1.5085175633430481e-01</leafValues></_></weakClassifiers></_>
    <!-- stage 15 -->
    <_>
      <maxWeakCount>11</maxWeakCount>
      <stageThreshold>-1.5381468534469604e+00</stageThreshold>
      <weakClassifiers>
        <_>
          <internalNodes>
            0 -1 77 2.6185750961303711e-02</internalNodes>
          <leafValues>
            -7.8475338220596313e-01 4.7368422150611877e-01</leafValues></_>
        <_>
          <internalNodes>
            0 -1 42 -8.8561512529850006e-03</internalNodes>
          <leafValues>
            1.7645110189914703e-01 -4.2632380127906799e-01</leafValues></_>
        <_>
          <internalNodes>
            0 -1 110 3.3500364224892110e-05</internalNodes>
          <leafValues>
            -3.7243518233299255e-01 2.0497730374336243e-01</leafValues></_>
        <_>
          <internalNodes>
            0 -1 189 -2.4688448756933212e-03</internalNodes>
          <leafValues>
            -8.2364368438720703e-01 8.3293318748474121e-02</leafValues></_>
        <_>
          <internalNodes>
            0 -1 129 -1.5114093199372292e-02</internalNodes>
          <leafValues>
            -8.1403893232345581e-01 9.6256218850612640e-02</leafValues></_>
        <_>
          <internalNodes>
            0 -1 19 2.4086893536150455e-03</internalNodes>
          <leafValues>
            -5.8368891477584839e-01 1.1398951709270477e-01</leafValues></_>
        <_>
          <internalNodes>
            0 -1 23 7.3335245251655579e-02</internalNodes>
          <leafValues>
            9.5858000218868256e-02 -7.6709628105163574e-01</leafValues></_>
        <_>
          <internalNodes>
            0 -1 46 6.0921278782188892e-04</internalNodes>
          <leafValues>
            -2.7975910902023315e-01 2.6507571339607239e-01</leafValues></_>
        <_>
          <internalNodes>
            0 -1 120 -2.1231520920991898e-02</internalNodes>
          <leafValues>
            -8.8225787878036499e-01 9.7885861992835999e-02</leafValues></_>
        <_>
          <internalNodes>
            0 -1 153 -1.1221183463931084e-02</internalNodes>
          <leafValues>
            -5.5630350112915039e-01 1.1460293084383011e-01</leafValues></_>
        <_>
          <internalNodes>
            0 -1 180 3.3802941907197237e-03</internalNodes>
          <leafValues>
            7.6912075281143188e-02 -8.5665315389633179e-01</leafValues></_></weakClassifiers></_>
    <!-- stage 16 -->
    <_>
      <maxWeakCount>13</maxWeakCount>
      <stageThreshold>-1.5199140310287476e+00</stageThreshold>
      <weakClassifiers>
        <_>
          <internalNodes>
            0 -1 79 -9.6910102292895317e-03</internalNodes>
          <leafValues>
            5.2941179275512695e-01 -7.8334826231002808e-01</leafValues></_>
        <_>
          <internalNodes>
            0 -1 85 -2.4725867435336113e-02</internalNodes>
          <leafValues>
            4.8929256200790405e-01 -3.5214042663574219e-01</leafValues></_>
        <_>
          <internalNodes>
            0 -1 74 1.1832539923489094e-02</internalNodes>
          <leafValues>
            -3.4141850471496582e-01 2.4286864697933197e-01</leafValues></_>
        <_>
          <internalNodes>
            0 -1 103 -2.1001379354856908e-04</internalNodes>
          <leafValues>
            2.9468631744384766e-01 -2.6362067461013794e-01</leafValues></_>
        <_>
          <internalNodes>
            0 -1 94 -6.2465731753036380e-04</internalNodes>
          <leafValues>
            2.0694814622402191e-01 -3.4067776799201965e-01</leafValues></_>
        <_>
          <internalNodes>
            0 -1 113 -2.1722957026213408e-03</internalNodes>
          <leafValues>
            2.9569998383522034e-01 -2.7705076336860657e-01</leafValues></_>
        <_>
          <internalNodes>
            0 -1 127 -1.4049932360649109e-02</internalNodes>
          <leafValues>
            6.8720173835754395e-01 -1.0681500285863876e-01</leafValues></_>
        <_>
          <internalNodes>
            0 -1 194 -1.3999554794281721e-03</internalNodes>
          <leafValues>
            -4.9978175759315491e-01 1.7046226561069489e-01</leafValues></_>
        <_>
          <internalNodes>
            0 -1 112 -2.3278851062059402e-02</internalNodes>
          <leafValues>
            -8.3343660831451416e-01 8.1215955317020416e-02</leafValues></_>
        <_>
          <internalNodes>
            0 -1 111 -5.3662707796320319e-04</internalNodes>
          <leafValues>
            2.9596117138862610e-01 -2.5110355019569397e-01</leafValues></_>
        <_>
          <internalNodes>
            0 -1 52 -2.2927420213818550e-03</internalNodes>
          <leafValues>
            3.9424374699592590e-01 -2.2352686524391174e-01</leafValues></_>
        <_>
          <internalNodes>
            0 -1 4 -3.3310920000076294e-02</internalNodes>
          <leafValues>
            -6.7471152544021606e-01 1.1462305486202240e-01</leafValues></_>
        <_>
          <internalNodes>
            0 -1 53 -1.6549844294786453e-02</internalNodes>
          <leafValues>
            -1. 5.6289076805114746e-02</leafValues></_></weakClassifiers></_>
    <!-- stage 17 -->
    <_>
      <maxWeakCount>13</maxWeakCount>
      <stageThreshold>-1.7972756624221802e+00</stageThreshold>
      <weakClassifiers>
        <_>
          <internalNodes>
            0 -1 185 7.6735131442546844e-03</internalNodes>
          <leafValues>
            -7.9411762952804565e-01 -4.3478261679410934e-02</leafValues></_>
        <_>
          <internalNodes>
            0 -1 109 -9.1780780348926783e-04</internalNodes>
          <leafValues>
            2.3424360156059265e-01 -4.0418630838394165e-01</leafValues></_>
        <_>
          <internalNodes>
            0 -1 147 1.2583810603246093e-03</internalNodes>
          <leafValues>
            -2.2051522135734558e-01 3.3751556277275085e-01</leafValues></_>
        <_>
          <internalNodes>
            0 -1 137 -2.5699248537421227e-02</internalNodes>
          <leafValues>
            -5.6589788198471069e-01 1.2949477136135101e-01</leafValues></_>
        <_>
          <internalNodes>
            0 -1 173 5.1443755626678467e-02</internalNodes>
          <leafValues>
            9.9335454404354095e-02 -1.</leafValues></_>
        <_>
          <internalNodes>
            0 -1 57 1.0675673373043537e-02</internalNodes>
          <leafValues>
            -1.7827856540679932e-01 5.1259934902191162e-01</leafValues></_>
        <_>
          <internalNodes>
            0 -1 32 -1.8931083381175995e-02</internalNodes>
          <leafValues>
            -7.7619355916976929e-01 1.3386133313179016e-01</leafValues></_>
        <_>
          <internalNodes>
            0 -1 27 7.5330527033656836e-04</internalNodes>
          <leafValues>
            1.3181678950786591e-01 -4.6061772108078003e-01</leafValues></_>
        <_>
          <internalNodes>
            0 -1 40 -9.6419011242687702e-05</internalNodes>
          <leafValues>
            3.1901338696479797e-01 -2.3464973270893097e-01</leafValues></_>
        <_>
          <internalNodes>
            0 -1 104 3.6893069045618176e-04</internalNodes>
          <leafValues>
            2.3064656555652618e-01 -3.1276446580886841e-01</leafValues></_>
        <_>
          <internalNodes>
            0 -1 108 9.0451596770435572e-04</internalNodes>
          <leafValues>
            -2.1504381299018860e-01 3.7464880943298340e-01</leafValues></_>
        <_>
          <internalNodes>
            0 -1 65 -9.8543874919414520e-03</internalNodes>
          <leafValues>
            2.9506710171699524e-01 -2.4593466520309448e-01</leafValues></_>
        <_>
          <internalNodes>
            0 -1 20 1.9002560293301940e-04</internalNodes>
          <leafValues>
            -2.3995675146579742e-01 3.0832538008689880e-01</leafValues></_></weakClassifiers></_>
    <!-- stage 18 -->
    <_>
      <maxWeakCount>15</maxWeakCount>
      <stageThreshold>-1.8468775749206543e+00</stageThreshold>
      <weakClassifiers>
        <_>
          <internalNodes>
            0 -1 43 4.7507010400295258e-02</internalNodes>
          <leafValues>
            -7.8880864381790161e-01 3.0769231915473938e-01</leafValues></_>
        <_>
          <internalNodes>
            0 -1 91 9.6830734983086586e-03</internalNodes>
          <leafValues>
            -3.4570038318634033e-01 6.3342636823654175e-01</leafValues></_>
        <_>
          <internalNodes>
            0 -1 14 -7.4119109194725752e-04</internalNodes>
          <leafValues>
            -5.3601628541946411e-01 1.5567432343959808e-01</leafValues></_>
        <_>
          <internalNodes>
            0 -1 25 -1.6931653954088688e-03</internalNodes>
          <leafValues>
            4.5904856920242310e-01 -1.6670416295528412e-01</leafValues></_>
        <_>
          <internalNodes>
            0 -1 87 -4.5055150985717773e-02</internalNodes>
          <leafValues>
            -8.7288504838943481e-01 8.9068211615085602e-02</leafValues></_>
        <_>
          <internalNodes>
            0 -1 22 2.1570785902440548e-03</internalNodes>
          <leafValues>
            8.1978686153888702e-02 -8.5726386308670044e-01</leafValues></_>
        <_>
          <internalNodes>
            0 -1 130 -4.9687474966049194e-03</internalNodes>
          <leafValues>
            3.6625212430953979e-01 -2.0529857277870178e-01</leafValues></_>
        <_>
          <internalNodes>
            0 -1 18 1.6237713862210512e-03</internalNodes>
          <leafValues>
            6.9360613822937012e-02 -8.2259088754653931e-01</leafValues></_>
        <_>
          <internalNodes>
            0 -1 192 -4.5287068933248520e-03</internalNodes>
          <leafValues>
            4.6169766783714294e-01 -1.5945622324943542e-01</leafValues></_>
        <_>
          <internalNodes>
            0 -1 191 9.3028787523508072e-03</internalNodes>
          <leafValues>
            -1.5109191834926605e-01 4.7576361894607544e-01</leafValues></_>
        <_>
          <internalNodes>
            0 -1 69 1.7093969509005547e-03</internalNodes>
          <leafValues>
            9.8414376378059387e-02 -7.6731717586517334e-01</leafValues></_>
        <_>
          <internalNodes>
            0 -1 49 4.9957400187849998e-03</internalNodes>
          <leafValues>
            -2.2792354226112366e-01 3.1467425823211670e-01</leafValues></_>
        <_>
          <internalNodes>
            0 -1 35 3.3826433122158051e-02</internalNodes>
          <leafValues>
            -1.1609472334384918e-01 6.5893614292144775e-01</leafValues></_>
        <_>
          <internalNodes>
            0 -1 149 2.7074632234871387e-03</internalNodes>
          <leafValues>
            -2.6071253418922424e-01 3.2044866681098938e-01</leafValues></_>
        <_>
          <internalNodes>
            0 -1 178 4.2328351992182434e-04</internalNodes>
          <leafValues>
            -2.0656336843967438e-01 3.5942623019218445e-01</leafValues></_></weakClassifiers></_>
    <!-- stage 19 -->
    <_>
      <maxWeakCount>12</maxWeakCount>
      <stageThreshold>-1.5374630689620972e+00</stageThreshold>
      <weakClassifiers>
        <_>
          <internalNodes>
            0 -1 143 -1.0397125966846943e-02</internalNodes>
          <leafValues>
            3.3333334326744080e-01 -7.8436654806137085e-01</leafValues></_>
        <_>
          <internalNodes>
            0 -1 70 -3.6160670220851898e-02</internalNodes>
          <leafValues>
            2.7861553430557251e-01 -3.8351067900657654e-01</leafValues></_>
        <_>
          <internalNodes>
            0 -1 38 -3.2818526029586792e-02</internalNodes>
          <leafValues>
            -8.3628702163696289e-01 6.4810179173946381e-02</leafValues></_>
        <_>
          <internalNodes>
            0 -1 51 -5.3512891754508018e-03</internalNodes>
          <leafValues>
            4.4924569129943848e-01 -1.5158592164516449e-01</leafValues></_>
        <_>
          <internalNodes>
            0 -1 116 8.6163245141506195e-03</internalNodes>
          <leafValues>
            -1.4853887259960175e-01 4.7487139701843262e-01</leafValues></_>
        <_>
          <internalNodes>
            0 -1 37 -8.5351109504699707e-02</internalNodes>
          <leafValues>
            8.2996183633804321e-01 -1.0655169188976288e-01</leafValues></_>
        <_>
          <internalNodes>
            0 -1 3 1.8331225961446762e-02</internalNodes>
          <leafValues>
            -2.9644650220870972e-01 3.0054232478141785e-01</leafValues></_>
        <_>
          <internalNodes>
            0 -1 31 -3.8072108291089535e-03</internalNodes>
          <leafValues>
            4.3935221433639526e-01 -1.9464412331581116e-01</leafValues></_>
        <_>
          <internalNodes>
            0 -1 148 1.0190600529313087e-02</internalNodes>
          <leafValues>
            -1.4976005256175995e-01 5.3652584552764893e-01</leafValues></_>
        <_>
          <internalNodes>
            0 -1 86 -4.1816115379333496e-02</internalNodes>
          <leafValues>
            -6.5475332736968994e-01 1.2543168663978577e-01</leafValues></_>
        <_>
          <internalNodes>
            0 -1 146 -2.9109112801961601e-04</internalNodes>
          <leafValues>
            3.5220471024513245e-01 -2.2062569856643677e-01</leafValues></_>
        <_>
          <internalNodes>
            0 -1 16 -1.5140864998102188e-03</internalNodes>
          <leafValues>
            -8.4659671783447266e-01 1.1133636534214020e-01</leafValues></_></weakClassifiers></_></stages>
  <features>
    <_>
      <rects>
        <_>
          0 0 20 9 -1.</_>
        <_>
          10 0 10 9 2.</_></rects>
      <tilted>0</tilted></_>
    <_>
      <rects>
        <_>
          0 1 1 3 -1.</_>
        <_>
          0 2 1 1 3.</_></rects>
      <tilted>0</tilted></_>
    <_>
      <rects>
        <_>
          0 2 1 3 -1.</_>
        <_>
          0 3 1 1 3.</_></rects>
      <tilted>0</tilted></_>
    <_>
      <rects>
        <_>
          0 2 10 16 -1.</_>
        <_>
          0 2 5 8 2.</_>
        <_>
          5 10 5 8 2.</_></rects>
      <tilted>0</tilted></_>
    <_>
      <rects>
        <_>
          0 2 7 18 -1.</_>
        <_>
          0 11 7 9 2.</_></rects>
      <tilted>0</tilted></_>
    <_>
      <rects>
        <_>
          0 3 12 6 -1.</_>
        <_>
          0 3 6 3 2.</_>
        <_>
          6 6 6 3 2.</_></rects>
      <tilted>0</tilted></_>
    <_>
      <rects>
        <_>
          0 4 3 19 -1.</_>
        <_>
          1 4 1 19 3.</_></rects>
      <tilted>0</tilted></_>
    <_>
      <rects>
        <_>
          0 5 1 12 -1.</_>
        <_>
          0 9 1 4 3.</_></rects>
      <tilted>0</tilted></_>
    <_>
      <rects>
        <_>
          0 5 2 12 -1.</_>
        <_>
          0 9 2 4 3.</_></rects>
      <tilted>0</tilted></_>
    <_>
      <rects>
        <_>
          0 6 2 2 -1.</_>
        <_>
          0 7 2 1 2.</_></rects>
      <tilted>0</tilted></_>
    <_>
      <rects>
        <_>
          0 6 3 3 -1.</_>
        <_>
          0 7 3 1 3.</_></rects>
      <tilted>0</tilted></_>
    <_>
      <rects>
        <_>
          0 8 2 12 -1.</_>
        <_>
          0 12 2 4 3.</_></rects>
      <tilted>0</tilted></_>
    <_>
      <rects>
        <_>
          0 8 14 16 -1.</_>
        <_>
          0 8 7 8 2.</_>
        <_>
          7 16 7 8 2.</_></rects>
      <tilted>0</tilted></_>
    <_>
      <rects>
        <_>
          0 16 1 3 -1.</_>
        <_>
          0 17 1 1 3.</_></rects>
      <tilted>0</tilted></_>
    <_>
      <rects>
        <_>
          0 16 2 3 -1.</_>
        <_>
          0 17 2 1 3.</_></rects>
      <tilted>0</tilted></_>
    <_>
      <rects>
        <_>
          0 20 1 4 -1.</_>
        <_>
          0 22 1 2 2.</_></rects>
      <tilted>0</tilted></_>
    <_>
      <rects>
        <_>
          0 22 2 2 -1.</_>
        <_>
          0 23 2 1 2.</_></rects>
      <tilted>0</tilted></_>
    <_>
      <rects>
        <_>
          1 0 2 2 -1.</_>
        <_>
          2 0 1 2 2.</_></rects>
      <tilted>0</tilted></_>
    <_>
      <rects>
        <_>
          1 1 2 3 -1.</_>
        <_>
          1 2 2 1 3.</_></rects>
      <tilted>0</tilted></_>
    <_>
      <rects>
        <_>
          1 5 20 5 -1.</_>
        <_>
          11 5 10 5 2.</_></rects>
      <tilted>0</tilted></_>
    <_>
      <rects>
        <_>
          1 7 2 1 -1.</_>
        <_>
          2 7 1 1 2.</_></rects>
      <tilted>0</tilted></_>
    <_>
      <rects>
        <_>
          1 14 16 10 -1.</_>
        <_>
          1 14 8 5 2.</_>
        <_>
          9 19 8 5 2.</_></rects>
      <tilted>0</tilted></_>
    <_>
      <rects>
        <_>
          2 1 2 2 -1.</_>
        <_>
          3 1 1 2 2.</_></rects>
      <tilted>0</tilted></_>
    <_>
      <rects>
        <_>
          2 6 5 16 -1.</_>
        <_>
          2 14 5 8 2.</_></rects>
      <tilted>0</tilted></_>
    <_>
      <rects>
        <_>
          2 7 3 11 -1.</_>
        <_>
          3 7 1 11 3.</_></rects>
      <tilted>0</tilted></_>
    <_>
      <rects>
        <_>
          2 13 3 1 -1.</_>
        <_>
          3 13 1 1 3.</_></rects>
      <tilted>0</tilted></_>
    <_>
      <rects>
        <_>
          2 15 3 1 -1.</_>
        <_>
          3 15 1 1 3.</_></rects>
      <tilted>0</tilted></_>
    <_>
      <rects>
        <_>
          3 0 6 1 -1.</_>
        <_>
          5 0 2 1 3.</_></rects>
      <tilted>0</tilted></_>
    <_>
      <rects>
        <_>
          3 0 9 19 -1.</_>
        <_>
          6 0 3 19 3.</_></rects>
      <tilted>0</tilted></_>
    <_>
      <rects>
        <_>
          3 3 3 18 -1.</_>
        <_>
          4 3 1 18 3.</_></rects>
      <tilted>0</tilted></_>
    <_>
      <rects>
        <_>
          3 5 10 19 -1.</_>
        <_>
          8 5 5 19 2.</_></rects>
      <tilted>0</tilted></_>
    <_>
      <rects>
        <_>
          3 6 2 10 -1.</_>
        <_>
          3 6 1 5 2.</_>
        <_>
          4 11 1 5 2.</_></rects>
      <tilted>0</tilted></_>
    <_>
      <rects>
        <_>
          3 11 6 6 -1.</_>
        <_>
          6 11 3 6 2.</_></rects>
      <tilted>0</tilted></_>
    <_>
      <rects>
        <_>
          3 12 18 1 -1.</_>
        <_>
          9 12 6 1 3.</_></rects>
      <tilted>0</tilted></_>
    <_>
      <rects>
        <_>
          3 15 12 6 -1.</_>
        <_>
          3 15 6 3 2.</_>
        <_>
          9 18 6 3 2.</_></rects>
      <tilted>0</tilted></_>
    <_>
      <rects>
        <_>
          3 18 18 3 -1.</_>
        <_>
          9 18 6 3 3.</_></rects>
      <tilted>0</tilted></_>
    <_>
      <rects>
        <_>
          4 3 13 12 -1.</_>
        <_>
          4 7 13 4 3.</_></rects>
      <tilted>0</tilted></_>
    <_>
      <rects>
        <_>
          4 4 9 12 -1.</_>
        <_>
          4 10 9 6 2.</_></rects>
      <tilted>0</tilted></_>
    <_>
      <rects>
        <_>
          4 6 9 4 -1.</_>
        <_>
          7 6 3 4 3.</_></rects>
      <tilted>0</tilted></_>
    <_>
      <rects>
        <_>
          4 7 3 11 -1.</_>
        <_>
          5 7 1 11 3.</_></rects>
      <tilted>0</tilted></_>
    <_>
      <rects>
        <_>
          4 8 4 2 -1.</_>
        <_>
          4 9 4 1 2.</_></rects>
      <tilted>0</tilted></_>
    <_>
      <rects>
        <_>
          4 8 10 5 -1.</_>
        <_>
          9 8 5 5 2.</_></rects>
      <tilted>0</tilted></_>
    <_>
      <rects>
        <_>
          4 9 3 9 -1.</_>
        <_>
          5 9 1 9 3.</_></rects>
      <tilted>0</tilted></_>
    <_>
      <rects>
        <_>
          4 9 3 14 -1.</_>
        <_>
          5 9 1 14 3.</_></rects>
      <tilted>0</tilted></_>
    <_>
      <rects>
        <_>
          4 9 9 3 -1.</_>
        <_>
          7 9 3 3 3.</_></rects>
      <tilted>0</tilted></_>
    <_>
      <rects>
        <_>
          4 11 3 1 -1.</_>
        <_>
          5 11 1 1 3.</_></rects>
      <tilted>0</tilted></_>
    <_>
      <rects>
        <_>
          4 16 3 2 -1.</_>
        <_>
          5 16 1 2 3.</_></rects>
      <tilted>0</tilted></_>
    <_>
      <rects>
        <_>
          4 17 2 2 -1.</_>
        <_>
          4 18 2 1 2.</_></rects>
      <tilted>0</tilted></_>
    <_>
      <rects>
        <_>
          4 17 8 6 -1.</_>
        <_>
          8 17 4 6 2.</_></rects>
      <tilted>0</tilted></_>
    <_>
      <rects>
        <_>
          4 20 10 4 -1.</_>
        <_>
          4 20 5 2 2.</_>
        <_>
          9 22 5 2 2.</_></rects>
      <tilted>0</tilted></_>
    <_>
      <rects>
        <_>
          5 1 3 23 -1.</_>
        <_>
          6 1 1 23 3.</_></rects>
      <tilted>0</tilted></_>
    <_>
      <rects>
        <_>
          5 1 4 10 -1.</_>
        <_>
          5 1 2 5 2.</_>
        <_>
          7 6 2 5 2.</_></rects>
      <tilted>0</tilted></_>
    <_>
      <rects>
        <_>
          5 3 1 6 -1.</_>
        <_>
          5 6 1 3 2.</_></rects>
      <tilted>0</tilted></_>
    <_>
      <rects>
        <_>
          5 4 4 12 -1.</_>
        <_>
          5 4 2 6 2.</_>
        <_>
          7 10 2 6 2.</_></rects>
      <tilted>0</tilted></_>
    <_>
      <rects>
        <_>
          5 5 2 4 -1.</_>
        <_>
          6 5 1 4 2.</_></rects>
      <tilted>0</tilted></_>
    <_>
      <rects>
        <_>
          5 5 7 9 -1.</_>
        <_>
          5 8 7 3 3.</_></rects>
      <tilted>0</tilted></_>
    <_>
      <rects>
        <_>
          5 5 11 18 -1.</_>
        <_>
          5 11 11 6 3.</_></rects>
      <tilted>0</tilted></_>
    <_>
      <rects>
        <_>
          5 7 2 6 -1.</_>
        <_>
          5 9 2 2 3.</_></rects>
      <tilted>0</tilted></_>
    <_>
      <rects>
        <_>
          5 8 3 10 -1.</_>
        <_>
          6 8 1 10 3.</_></rects>
      <tilted>0</tilted></_>
    <_>
      <rects>
        <_>
          5 9 3 9 -1.</_>
        <_>
          6 9 1 9 3.</_></rects>
      <tilted>0</tilted></_>
    <_>
      <rects>
        <_>
          5 9 3 12 -1.</_>
        <_>
          6 9 1 12 3.</_></rects>
      <tilted>0</tilted></_>
    <_>
      <rects>
        <_>
          5 9 9 14 -1.</_>
        <_>
          8 9 3 14 3.</_></rects>
      <tilted>0</tilted></_>
    <_>
      <rects>
        <_>
          5 10 2 2 -1.</_>
        <_>
          5 10 1 1 2.</_>
        <_>
          6 11 1 1 2.</_></rects>
      <tilted>0</tilted></_>
    <_>
      <rects>
        <_>
          5 10 3 8 -1.</_>
        <_>
          6 10 1 8 3.</_></rects>
      <tilted>0</tilted></_>
    <_>
      <rects>
        <_>
          5 13 3 1 -1.</_>
        <_>
          6 13 1 1 3.</_></rects>
      <tilted>0</tilted></_>
    <_>
      <rects>
        <_>
          6 0 4 8 -1.</_>
        <_>
          6 4 4 4 2.</_></rects>
      <tilted>0</tilted></_>
    <_>
      <rects>
        <_>
          6 0 8 18 -1.</_>
        <_>
          10 0 4 18 2.</_></rects>
      <tilted>0</tilted></_>
    <_>
      <rects>
        <_>
          6 0 10 12 -1.</_>
        <_>
          11 0 5 12 2.</_></rects>
      <tilted>0</tilted></_>
    <_>
      <rects>
        <_>
          6 0 12 24 -1.</_>
        <_>
          6 0 6 12 2.</_>
        <_>
          12 12 6 12 2.</_></rects>
      <tilted>0</tilted></_>
    <_>
      <rects>
        <_>
          6 2 2 2 -1.</_>
        <_>
          7 2 1 2 2.</_></rects>
      <tilted>0</tilted></_>
    <_>
      <rects>
        <_>
          6 2 12 4 -1.</_>
        <_>
          10 2 4 4 3.</_></rects>
      <tilted>0</tilted></_>
    <_>
      <rects>
        <_>
          6 5 9 18 -1.</_>
        <_>
          6 11 9 6 3.</_></rects>
      <tilted>0</tilted></_>
    <_>
      <rects>
        <_>
          6 6 6 18 -1.</_>
        <_>
          9 6 3 18 2.</_></rects>
      <tilted>0</tilted></_>
    <_>
      <rects>
        <_>
          6 7 5 2 -1.</_>
        <_>
          6 8 5 1 2.</_></rects>
      <tilted>0</tilted></_>
    <_>
      <rects>
        <_>
          6 8 7 9 -1.</_>
        <_>
          6 11 7 3 3.</_></rects>
      <tilted>0</tilted></_>
    <_>
      <rects>
        <_>
          6 10 3 3 -1.</_>
        <_>
          7 10 1 3 3.</_></rects>
      <tilted>0</tilted></_>
    <_>
      <rects>
        <_>
          6 10 3 5 -1.</_>
        <_>
          7 10 1 5 3.</_></rects>
      <tilted>0</tilted></_>
    <_>
      <rects>
        <_>
          6 11 3 4 -1.</_>
        <_>
          7 11 1 4 3.</_></rects>
      <tilted>0</tilted></_>
    <_>
      <rects>
        <_>
          6 11 11 10 -1.</_>
        <_>
          6 16 11 5 2.</_></rects>
      <tilted>0</tilted></_>
    <_>
      <rects>
        <_>
          6 13 3 1 -1.</_>
        <_>
          7 13 1 1 3.</_></rects>
      <tilted>0</tilted></_>
    <_>
      <rects>
        <_>
          6 16 4 8 -1.</_>
        <_>
          8 16 2 8 2.</_></rects>
      <tilted>0</tilted></_>
    <_>
      <rects>
        <_>
          6 17 2 5 -1.</_>
        <_>
          7 17 1 5 2.</_></rects>
      <tilted>0</tilted></_>
    <_>
      <rects>
        <_>
          7 2 6 10 -1.</_>
        <_>
          10 2 3 10 2.</_></rects>
      <tilted>0</tilted></_>
    <_>
      <rects>
        <_>
          7 4 8 18 -1.</_>
        <_>
          7 10 8 6 3.</_></rects>
      <tilted>0</tilted></_>
    <_>
      <rects>
        <_>
          7 6 3 12 -1.</_>
        <_>
          8 6 1 12 3.</_></rects>
      <tilted>0</tilted></_>
    <_>
      <rects>
        <_>
          7 7 3 13 -1.</_>
        <_>
          8 7 1 13 3.</_></rects>
      <tilted>0</tilted></_>
    <_>
      <rects>
        <_>
          7 7 12 13 -1.</_>
        <_>
          11 7 4 13 3.</_></rects>
      <tilted>0</tilted></_>
    <_>
      <rects>
        <_>
          7 8 9 12 -1.</_>
        <_>
          10 8 3 12 3.</_></rects>
      <tilted>0</tilted></_>
    <_>
      <rects>
        <_>
          7 9 9 15 -1.</_>
        <_>
          7 14 9 5 3.</_></rects>
      <tilted>0</tilted></_>
    <_>
      <rects>
        <_>
          7 11 3 8 -1.</_>
        <_>
          8 11 1 8 3.</_></rects>
      <tilted>0</tilted></_>
    <_>
      <rects>
        <_>
          7 12 2 3 -1.</_>
        <_>
          8 12 1 3 2.</_></rects>
      <tilted>0</tilted></_>
    <_>
      <rects>
        <_>
          7 13 3 2 -1.</_>
        <_>
          8 13 1 2 3.</_></rects>
      <tilted>0</tilted></_>
    <_>
      <rects>
        <_>
          7 16 1 6 -1.</_>
        <_>
          7 18 1 2 3.</_></rects>
      <tilted>0</tilted></_>
    <_>
      <rects>
        <_>
          7 18 4 6 -1.</_>
        <_>
          9 18 2 6 2.</_></rects>
      <tilted>0</tilted></_>
    <_>
      <rects>
        <_>
          7 18 6 6 -1.</_>
        <_>
          9 18 2 6 3.</_></rects>
      <tilted>0</tilted></_>
    <_>
      <rects>
        <_>
          7 19 3 4 -1.</_>
        <_>
          7 21 3 2 2.</_></rects>
      <tilted>0</tilted></_>
    <_>
      <rects>
        <_>
          8 0 8 9 -1.</_>
        <_>
          8 3 8 3 3.</_></rects>
      <tilted>0</tilted></_>
    <_>
      <rects>
        <_>
          8 1 2 6 -1.</_>
        <_>
          8 4 2 3 2.</_></rects>
      <tilted>0</tilted></_>
    <_>
      <rects>
        <_>
          8 4 1 3 -1.</_>
        <_>
          8 5 1 1 3.</_></rects>
      <tilted>0</tilted></_>
    <_>
      <rects>
        <_>
          8 4 5 9 -1.</_>
        <_>
          8 7 5 3 3.</_></rects>
      <tilted>0</tilted></_>
    <_>
      <rects>
        <_>
          8 6 6 9 -1.</_>
        <_>
          8 9 6 3 3.</_></rects>
      <tilted>0</tilted></_>
    <_>
      <rects>
        <_>
          8 7 3 10 -1.</_>
        <_>
          9 7 1 10 3.</_></rects>
      <tilted>0</tilted></_>
    <_>
      <rects>
        <_>
          8 8 6 10 -1.</_>
        <_>
          8 13 6 5 2.</_></rects>
      <tilted>0</tilted></_>
    <_>
      <rects>
        <_>
          8 9 3 1 -1.</_>
        <_>
          9 9 1 1 3.</_></rects>
      <tilted>0</tilted></_>
    <_>
      <rects>
        <_>
          8 9 3 2 -1.</_>
        <_>
          8 10 3 1 2.</_></rects>
      <tilted>0</tilted></_>
    <_>
      <rects>
        <_>
          8 10 7 9 -1.</_>
        <_>
          8 13 7 3 3.</_></rects>
      <tilted>0</tilted></_>
    <_>
      <rects>
        <_>
          8 12 7 12 -1.</_>
        <_>
          8 16 7 4 3.</_></rects>
      <tilted>0</tilted></_>
    <_>
      <rects>
        <_>
          8 13 2 11 -1.</_>
        <_>
          9 13 1 11 2.</_></rects>
      <tilted>0</tilted></_>
    <_>
      <rects>
        <_>
          8 18 2 4 -1.</_>
        <_>
          8 18 1 2 2.</_>
        <_>
          9 20 1 2 2.</_></rects>
      <tilted>0</tilted></_>
    <_>
      <rects>
        <_>
          8 19 2 2 -1.</_>
        <_>
          8 19 1 1 2.</_>
        <_>
          9 20 1 1 2.</_></rects>
      <tilted>0</tilted></_>
    <_>
      <rects>
        <_>
          8 21 16 2 -1.</_>
        <_>
          8 22 16 1 2.</_></rects>
      <tilted>0</tilted></_>
    <_>
      <rects>
        <_>
          9 0 2 10 -1.</_>
        <_>
          9 0 1 5 2.</_>
        <_>
          10 5 1 5 2.</_></rects>
      <tilted>0</tilted></_>
    <_>
      <rects>
        <_>
          9 0 6 10 -1.</_>
        <_>
          11 0 2 10 3.</_></rects>
      <tilted>0</tilted></_>
    <_>
      <rects>
        <_>
          9 1 6 4 -1.</_>
        <_>
          11 1 2 4 3.</_></rects>
      <tilted>0</tilted></_>
    <_>
      <rects>
        <_>
          9 3 1 3 -1.</_>
        <_>
          9 4 1 1 3.</_></rects>
      <tilted>0</tilted></_>
    <_>
      <rects>
        <_>
          9 3 8 15 -1.</_>
        <_>
          13 3 4 15 2.</_></rects>
      <tilted>0</tilted></_>
    <_>
      <rects>
        <_>
          9 5 2 12 -1.</_>
        <_>
          10 5 1 12 2.</_></rects>
      <tilted>0</tilted></_>
    <_>
      <rects>
        <_>
          9 6 4 12 -1.</_>
        <_>
          9 10 4 4 3.</_></rects>
      <tilted>0</tilted></_>
    <_>
      <rects>
        <_>
          9 7 8 15 -1.</_>
        <_>
          9 12 8 5 3.</_></rects>
      <tilted>0</tilted></_>
    <_>
      <rects>
        <_>
          9 15 3 1 -1.</_>
        <_>
          10 15 1 1 3.</_></rects>
      <tilted>0</tilted></_>
    <_>
      <rects>
        <_>
          10 0 6 7 -1.</_>
        <_>
          12 0 2 7 3.</_></rects>
      <tilted>0</tilted></_>
    <_>
      <rects>
        <_>
          10 0 4 14 -1.</_>
        <_>
          12 0 2 14 2.</_></rects>
      <tilted>0</tilted></_>
    <_>
      <rects>
        <_>
          10 0 3 12 -1.</_>
        <_>
          10 4 3 4 3.</_></rects>
      <tilted>0</tilted></_>
    <_>
      <rects>
        <_>
          10 2 14 5 -1.</_>
        <_>
          17 2 7 5 2.</_></rects>
      <tilted>0</tilted></_>
    <_>
      <rects>
        <_>
          10 3 1 2 -1.</_>
        <_>
          10 4 1 1 2.</_></rects>
      <tilted>0</tilted></_>
    <_>
      <rects>
        <_>
          10 3 2 8 -1.</_>
        <_>
          10 7 2 4 2.</_></rects>
      <tilted>0</tilted></_>
    <_>
      <rects>
        <_>
          10 3 4 18 -1.</_>
        <_>
          10 9 4 6 3.</_></rects>
      <tilted>0</tilted></_>
    <_>
      <rects>
        <_>
          10 4 1 15 -1.</_>
        <_>
          10 9 1 5 3.</_></rects>
      <tilted>0</tilted></_>
    <_>
      <rects>
        <_>
          10 7 2 12 -1.</_>
        <_>
          10 11 2 4 3.</_></rects>
      <tilted>0</tilted></_>
    <_>
      <rects>
        <_>
          10 7 4 8 -1.</_>
        <_>
          10 7 2 4 2.</_>
        <_>
          12 11 2 4 2.</_></rects>
      <tilted>0</tilted></_>
    <_>
      <rects>
        <_>
          10 8 3 11 -1.</_>
        <_>
          11 8 1 11 3.</_></rects>
      <tilted>0</tilted></_>
    <_>
      <rects>
        <_>
          10 9 6 12 -1.</_>
        <_>
          10 13 6 4 3.</_></rects>
      <tilted>0</tilted></_>
    <_>
      <rects>
        <_>
          10 10 4 12 -1.</_>
        <_>
          10 14 4 4 3.</_></rects>
      <tilted>0</tilted></_>
    <_>
      <rects>
        <_>
          10 13 9 11 -1.</_>
        <_>
          13 13 3 11 3.</_></rects>
      <tilted>0</tilted></_>
    <_>
      <rects>
        <_>
          10 13 12 8 -1.</_>
        <_>
          10 13 6 4 2.</_>
        <_>
          16 17 6 4 2.</_></rects>
      <tilted>0</tilted></_>
    <_>
      <rects>
        <_>
          10 14 4 10 -1.</_>
        <_>
          10 19 4 5 2.</_></rects>
      <tilted>0</tilted></_>
    <_>
      <rects>
        <_>
          11 0 6 8 -1.</_>
        <_>
          14 0 3 8 2.</_></rects>
      <tilted>0</tilted></_>
    <_>
      <rects>
        <_>
          11 1 9 16 -1.</_>
        <_>
          14 1 3 16 3.</_></rects>
      <tilted>0</tilted></_>
    <_>
      <rects>
        <_>
          11 1 6 9 -1.</_>
        <_>
          11 4 6 3 3.</_></rects>
      <tilted>0</tilted></_>
    <_>
      <rects>
        <_>
          11 2 5 4 -1.</_>
        <_>
          11 4 5 2 2.</_></rects>
      <tilted>0</tilted></_>
    <_>
      <rects>
        <_>
          11 4 2 9 -1.</_>
        <_>
          11 7 2 3 3.</_></rects>
      <tilted>0</tilted></_>
    <_>
      <rects>
        <_>
          11 5 3 15 -1.</_>
        <_>
          11 10 3 5 3.</_></rects>
      <tilted>0</tilted></_>
    <_>
      <rects>
        <_>
          11 9 10 5 -1.</_>
        <_>
          16 9 5 5 2.</_></rects>
      <tilted>0</tilted></_>
    <_>
      <rects>
        <_>
          11 13 3 2 -1.</_>
        <_>
          12 13 1 2 3.</_></rects>
      <tilted>0</tilted></_>
    <_>
      <rects>
        <_>
          11 19 11 2 -1.</_>
        <_>
          11 20 11 1 2.</_></rects>
      <tilted>0</tilted></_>
    <_>
      <rects>
        <_>
          12 0 4 24 -1.</_>
        <_>
          12 0 2 12 2.</_>
        <_>
          14 12 2 12 2.</_></rects>
      <tilted>0</tilted></_>
    <_>
      <rects>
        <_>
          12 11 2 1 -1.</_>
        <_>
          13 11 1 1 2.</_></rects>
      <tilted>0</tilted></_>
    <_>
      <rects>
        <_>
          12 12 2 4 -1.</_>
        <_>
          13 12 1 4 2.</_></rects>
      <tilted>0</tilted></_>
    <_>
      <rects>
        <_>
          12 15 10 1 -1.</_>
        <_>
          17 15 5 1 2.</_></rects>
      <tilted>0</tilted></_>
    <_>
      <rects>
        <_>
          12 19 8 1 -1.</_>
        <_>
          16 19 4 1 2.</_></rects>
      <tilted>0</tilted></_>
    <_>
      <rects>
        <_>
          13 1 4 2 -1.</_>
        <_>
          13 2 4 1 2.</_></rects>
      <tilted>0</tilted></_>
    <_>
      <rects>
        <_>
          13 1 9 15 -1.</_>
        <_>
          13 6 9 5 3.</_></rects>
      <tilted>0</tilted></_>
    <_>
      <rects>
        <_>
          13 2 2 2 -1.</_>
        <_>
          13 2 1 1 2.</_>
        <_>
          14 3 1 1 2.</_></rects>
      <tilted>0</tilted></_>
    <_>
      <rects>
        <_>
          13 13 6 7 -1.</_>
        <_>
          15 13 2 7 3.</_></rects>
      <tilted>0</tilted></_>
    <_>
      <rects>
        <_>
          13 14 3 1 -1.</_>
        <_>
          14 14 1 1 3.</_></rects>
      <tilted>0</tilted></_>
    <_>
      <rects>
        <_>
          13 17 6 7 -1.</_>
        <_>
          15 17 2 7 3.</_></rects>
      <tilted>0</tilted></_>
    <_>
      <rects>
        <_>
          14 0 3 22 -1.</_>
        <_>
          15 0 1 22 3.</_></rects>
      <tilted>0</tilted></_>
    <_>
      <rects>
        <_>
          14 0 10 8 -1.</_>
        <_>
          19 0 5 8 2.</_></rects>
      <tilted>0</tilted></_>
    <_>
      <rects>
        <_>
          14 0 10 20 -1.</_>
        <_>
          19 0 5 20 2.</_></rects>
      <tilted>0</tilted></_>
    <_>
      <rects>
        <_>
          14 2 2 4 -1.</_>
        <_>
          14 2 1 2 2.</_>
        <_>
          15 4 1 2 2.</_></rects>
      <tilted>0</tilted></_>
    <_>
      <rects>
        <_>
          14 2 10 22 -1.</_>
        <_>
          19 2 5 22 2.</_></rects>
      <tilted>0</tilted></_>
    <_>
      <rects>
        <_>
          14 4 3 18 -1.</_>
        <_>
          15 4 1 18 3.</_></rects>
      <tilted>0</tilted></_>
    <_>
      <rects>
        <_>
          14 5 2 6 -1.</_>
        <_>
          15 5 1 6 2.</_></rects>
      <tilted>0</tilted></_>
    <_>
      <rects>
        <_>
          14 5 3 15 -1.</_>
        <_>
          15 5 1 15 3.</_></rects>
      <tilted>0</tilted></_>
    <_>
      <rects>
        <_>
          14 9 2 6 -1.</_>
        <_>
          14 11 2 2 3.</_></rects>
      <tilted>0</tilted></_>
    <_>
      <rects>
        <_>
          14 14 1 4 -1.</_>
        <_>
          14 16 1 2 2.</_></rects>
      <tilted>0</tilted></_>
    <_>
      <rects>
        <_>
          14 15 10 7 -1.</_>
        <_>
          19 15 5 7 2.</_></rects>
      <tilted>0</tilted></_>
    <_>
      <rects>
        <_>
          14 16 2 2 -1.</_>
        <_>
          14 16 1 1 2.</_>
        <_>
          15 17 1 1 2.</_></rects>
      <tilted>0</tilted></_>
    <_>
      <rects>
        <_>
          14 17 2 2 -1.</_>
        <_>
          14 17 1 1 2.</_>
        <_>
          15 18 1 1 2.</_></rects>
      <tilted>0</tilted></_>
    <_>
      <rects>
        <_>
          15 6 3 13 -1.</_>
        <_>
          16 6 1 13 3.</_></rects>
      <tilted>0</tilted></_>
    <_>
      <rects>
        <_>
          15 7 3 9 -1.</_>
        <_>
          16 7 1 9 3.</_></rects>
      <tilted>0</tilted></_>
    <_>
      <rects>
        <_>
          15 9 3 6 -1.</_>
        <_>
          16 9 1 6 3.</_></rects>
      <tilted>0</tilted></_>
    <_>
      <rects>
        <_>
          15 17 8 1 -1.</_>
        <_>
          19 17 4 1 2.</_></rects>
      <tilted>0</tilted></_>
    <_>
      <rects>
        <_>
          16 3 5 12 -1.</_>
        <_>
          16 7 5 4 3.</_></rects>
      <tilted>0</tilted></_>
    <_>
      <rects>
        <_>
          16 8 2 5 -1.</_>
        <_>
          17 8 1 5 2.</_></rects>
      <tilted>0</tilted></_>
    <_>
      <rects>
        <_>
          16 10 2 8 -1.</_>
        <_>
          16 10 1 4 2.</_>
        <_>
          17 14 1 4 2.</_></rects>
      <tilted>0</tilted></_>
    <_>
      <rects>
        <_>
          16 12 2 4 -1.</_>
        <_>
          16 12 1 2 2.</_>
        <_>
          17 14 1 2 2.</_></rects>
      <tilted>0</tilted></_>
    <_>
      <rects>
        <_>
          16 19 2 4 -1.</_>
        <_>
          16 19 1 2 2.</_>
        <_>
          17 21 1 2 2.</_></rects>
      <tilted>0</tilted></_>
    <_>
      <rects>
        <_>
          17 4 3 2 -1.</_>
        <_>
          17 5 3 1 2.</_></rects>
      <tilted>0</tilted></_>
    <_>
      <rects>
        <_>
          17 5 6 6 -1.</_>
        <_>
          19 5 2 6 3.</_></rects>
      <tilted>0</tilted></_>
    <_>
      <rects>
        <_>
          17 10 6 2 -1.</_>
        <_>
          17 11 6 1 2.</_></rects>
      <tilted>0</tilted></_>
    <_>
      <rects>
        <_>
          17 11 7 4 -1.</_>
        <_>
          17 13 7 2 2.</_></rects>
      <tilted>0</tilted></_>
    <_>
      <rects>
        <_>
          18 1 4 19 -1.</_>
        <_>
          20 1 2 19 2.</_></rects>
      <tilted>0</tilted></_>
    <_>
      <rects>
        <_>
          18 7 3 8 -1.</_>
        <_>
          19 7 1 8 3.</_></rects>
      <tilted>0</tilted></_>
    <_>
      <rects>
        <_>
          18 8 6 16 -1.</_>
        <_>
          21 8 3 16 2.</_></rects>
      <tilted>0</tilted></_>
    <_>
      <rects>
        <_>
          18 13 2 6 -1.</_>
        <_>
          18 13 1 3 2.</_>
        <_>
          19 16 1 3 2.</_></rects>
      <tilted>0</tilted></_>
    <_>
      <rects>
        <_>
          18 17 4 2 -1.</_>
        <_>
          20 17 2 2 2.</_></rects>
      <tilted>0</tilted></_>
    <_>
      <rects>
        <_>
          18 18 6 3 -1.</_>
        <_>
          18 19 6 1 3.</_></rects>
      <tilted>0</tilted></_>
    <_>
      <rects>
        <_>
          19 11 5 12 -1.</_>
        <_>
          19 15 5 4 3.</_></rects>
      <tilted>0</tilted></_>
    <_>
      <rects>
        <_>
          19 16 5 3 -1.</_>
        <_>
          19 17 5 1 3.</_></rects>
      <tilted>0</tilted></_>
    <_>
      <rects>
        <_>
          20 0 4 19 -1.</_>
        <_>
          22 0 2 19 2.</_></rects>
      <tilted>0</tilted></_>
    <_>
      <rects>
        <_>
          20 7 3 12 -1.</_>
        <_>
          21 7 1 12 3.</_></rects>
      <tilted>0</tilted></_>
    <_>
      <rects>
        <_>
          20 12 3 4 -1.</_>
        <_>
          21 12 1 4 3.</_></rects>
      <tilted>0</tilted></_>
    <_>
      <rects>
        <_>
          22 3 1 12 -1.</_>
        <_>
          22 7 1 4 3.</_></rects>
      <tilted>0</tilted></_>
    <_>
      <rects>
        <_>
          22 3 2 9 -1.</_>
        <_>
          22 6 2 3 3.</_></rects>
      <tilted>0</tilted></_>
    <_>
      <rects>
        <_>
          22 4 2 3 -1.</_>
        <_>
          22 5 2 1 3.</_></rects>
      <tilted>0</tilted></_>
    <_>
      <rects>
        <_>
          22 14 2 3 -1.</_>
        <_>
          22 15 2 1 3.</_></rects>
      <tilted>0</tilted></_>
    <_>
      <rects>
        <_>
          22 21 2 3 -1.</_>
        <_>
          22 22 2 1 3.</_></rects>
      <tilted>0</tilted></_>
    <_>
      <rects>
        <_>
          23 0 1 4 -1.</_>
        <_>
          23 2 1 2 2.</_></rects>
      <tilted>0</tilted></_>
    <_>
      <rects>
        <_>
          23 1 1 3 -1.</_>
        <_>
          23 2 1 1 3.</_></rects>
      <tilted>0</tilted></_>
    <_>
      <rects>
        <_>
          23 2 1 2 -1.</_>
        <_>
          23 3 1 1 2.</_></rects>
      <tilted>0</tilted></_>
    <_>
      <rects>
        <_>
          23 2 1 3 -1.</_>
        <_>
          23 3 1 1 3.</_></rects>
      <tilted>0</tilted></_>
    <_>
      <rects>
        <_>
          23 11 1 4 -1.</_>
        <_>
          23 13 1 2 2.</_></rects>
      <tilted>0</tilted></_>
    <_>
      <rects>
        <_>
          23 11 1 6 -1.</_>
        <_>
          23 13 1 2 3.</_></rects>
      <tilted>0</tilted></_>
    <_>
      <rects>
        <_>
          23 16 1 8 -1.</_>
        <_>
          23 20 1 4 2.</_></rects>
      <tilted>0</tilted></_></features></cascade>
</opencv_storage>
